{"learner":{"attributes":{"best_iteration":"88","best_ntree_limit":"89","best_score":"0.124675","scikit_learn":"{\"use_label_encoder\": null, \"n_estimators\": 100, \"objective\": \"binary:logistic\", \"max_depth\": null, \"max_leaves\": null, \"max_bin\": null, \"grow_policy\": null, \"learning_rate\": null, \"verbosity\": null, \"booster\": null, \"tree_method\": null, \"gamma\": null, \"min_child_weight\": null, \"max_delta_step\": null, \"subsample\": null, \"sampling_method\": null, \"colsample_bytree\": null, \"colsample_bylevel\": null, \"colsample_bynode\": null, \"reg_alpha\": null, \"reg_lambda\": null, \"scale_pos_weight\": null, \"base_score\": null, \"missing\": NaN, \"num_parallel_tree\": null, \"random_state\": 0, \"n_jobs\": -1, \"monotone_constraints\": null, \"interaction_constraints\": null, \"importance_type\": null, \"gpu_id\": null, \"validate_parameters\": null, \"predictor\": null, \"enable_categorical\": false, \"feature_types\": null, \"max_cat_to_onehot\": null, \"max_cat_threshold\": null, \"eval_metric\": null, \"early_stopping_rounds\": null, \"callbacks\": null, \"classes_\": [0, 1], \"n_classes_\": 2, \"evals_result_\": {\"validation_0\": {\"logloss\": [0.4724022598200585, 0.34250542304542714, 0.2559533127551568, 0.19626657085153176, 0.1543873966268189, 0.12324301753270732, 0.101036941594271, 0.08520065599999074, 0.07317261283641695, 0.06315600587968381, 0.05569220605934131, 0.0498198418614437, 0.04284833715933301, 0.0391306877120484, 0.03590916825176797, 0.03283346457040602, 0.0294301092065517, 0.02651760538439608, 0.02456344468422217, 0.02228196716029602, 0.02084636149747631, 0.01914714978451408, 0.0172837917618138, 0.01596754351152993, 0.01423492266241617, 0.01350812658820597, 0.01243907170560444, 0.01143644404797394, 0.00972040932153736, 0.00887528934589004, 0.00807210743389877, 0.00757801166686826, 0.00683267176903366, 0.00616842355614943, 0.00587095731769438, 0.00546103192787502, 0.00504589467456912, 0.00463433457835674, 0.00423940601464547, 0.00387578627005439, 0.00360278984428251, 0.00329131045706713, 0.00307946068610308, 0.00292739420187114, 0.0027557634805462, 0.0025832535232847, 0.00243138223776176, 0.00217829644981342, 0.00205270035993991, 0.00185394949470782, 0.0017037452936101, 0.00161879474469752, 0.00149803889554013, 0.00143243272677121, 0.0013106124345746, 0.0012453514715478, 0.0011498532873097, 0.00109579300432702, 0.00104134894709289, 0.0009426895591915, 0.00087974762953778, 0.00079321602208035, 0.00071590016467728, 0.00067484243155514, 0.00063314011828473, 0.00058479231477904, 0.00055797695812853, 0.00053577172875217, 0.0005026250695726, 0.00047926597665172, 0.00046350446078149, 0.00042441997064086, 0.00040993416119351, 0.00038378117700223, 0.0003585088688578, 0.00034047608023005, 0.00032201808663262, 0.00030848304703934, 0.00030008601239047, 0.00029339345040727, 0.00027854597734903, 0.00026593365471735, 0.00025644356990984, 0.00024566668551315, 0.00023478136990329, 0.00022229424250719, 0.00021614735951535, 0.00020835476686984, 0.00020091968235094, 0.0001947397093709, 0.00018893695409399, 0.00018476361146676, 0.00017870677976733, 0.00017490215131191, 0.00016885010579887, 0.00016296373346298, 0.00015872001868107, 0.0001555933744699, 0.00015111211011914], \"f1_err\": [0.722644, 0.570211, 0.550649, 0.447293, 0.427362, 0.400612, 0.391454, 0.396458, 0.388487, 0.381882, 0.376669, 0.367071, 0.34195, 0.326531, 0.322691, 0.311437, 0.292576, 0.276786, 0.266365, 0.255328, 0.242347, 0.227233, 0.214286, 0.195485, 0.173086, 0.16534, 0.150215, 0.134951, 0.10989, 0.1, 0.094512, 0.089888, 0.074766, 0.072358, 0.068966, 0.063584, 0.056644, 0.053638, 0.048585, 0.04245, 0.039353, 0.02994, 0.025164, 0.024631, 0.021954, 0.021417, 0.016013, 0.013289, 0.00945, 0.00945, 0.006135, 0.006135, 0.005025, 0.005025, 0.003356, 0.002798, 0.00224, 0.00224, 0.001681, 0.001681, 0.001681, 0.000561, 0.0, 0.0, 0.0, 0.0, 0.0, 0.0, 0.0, 0.0, 0.0, 0.0, 0.0, 0.0, 0.0, 0.0, 0.0, 0.0, 0.0, 0.0, 0.0, 0.0, 0.0, 0.0, 0.0, 0.0, 0.0, 0.0, 0.0, 0.0, 0.0, 0.0, 0.0, 0.0, 0.0, 0.0, 0.0, 0.0, 0.0]}, \"validation_1\": {\"logloss\": [0.47315572577818793, 0.3444170990580283, 0.2582002952395002, 0.19928708941181286, 0.15748144896605643, 0.12694205924770097, 0.10477680910329451, 0.08913520086424279, 0.07717889108355284, 0.06742738211687721, 0.06021194281670362, 0.0544615233007457, 0.04783947494417021, 0.04425723788134477, 0.0408969566494363, 0.03781707230680445, 0.0344828778819053, 0.03174824134314744, 0.02991413942926367, 0.02772734771163885, 0.0265106622952677, 0.02506658746584886, 0.02333760387371739, 0.02204929216765628, 0.02050670188834903, 0.01989700056809541, 0.018948704349402, 0.01808492539978421, 0.01639111020589033, 0.01566069867694641, 0.01501019864282659, 0.01473818328192469, 0.01407765093062728, 0.01332287034403212, 0.01311916117657033, 0.01278088965812245, 0.01255351820369416, 0.01217576016165559, 0.01175166435038799, 0.01144891925385731, 0.01130716492920987, 0.01105670162113647, 0.0108939129747931, 0.01090126447591627, 0.01077443536509669, 0.01063220829769319, 0.01058263454862689, 0.01050042400391061, 0.01046093594634412, 0.01029510512268085, 0.01011924322444934, 0.01004294806069728, 0.01000033822931478, 0.00999957287998109, 0.00995800999076357, 0.0099591388144618, 0.00982698678395745, 0.00986442460991469, 0.00988987710056538, 0.0098124801651363, 0.00982501979111748, 0.00988156210509896, 0.00983945726801043, 0.00981768623492672, 0.00982028518364364, 0.00983108181061992, 0.00988406551427635, 0.00993091922317384, 0.00991324476987517, 0.00990662306952732, 0.00993124737638949, 0.00991853519330273, 0.00993626684936108, 0.00995648132641133, 0.00995849037284532, 0.00995678979583773, 0.00997282997746753, 0.01001459790520023, 0.010011119981361, 0.01002067929448, 0.01003923353884768, 0.01007936802123715, 0.01009587539219591, 0.0101324392456989, 0.01018029100969992, 0.01019027494349587, 0.01022793681266026, 0.01025702403522136, 0.01025864353315481, 0.01030503413731449, 0.01033649095069009, 0.01035995169614425, 0.01034936468512261, 0.01032330998520137, 0.01034425228344974, 0.01037024693394937, 0.01039981275719649, 0.01041609270726302, 0.01041814715445409], \"f1_err\": [0.724879, 0.610775, 0.587699, 0.497183, 0.48543, 0.45509, 0.442073, 0.452489, 0.44385, 0.430793, 0.429462, 0.421838, 0.406807, 0.393035, 0.39145, 0.373494, 0.359087, 0.346499, 0.341241, 0.329619, 0.328302, 0.317445, 0.312621, 0.289552, 0.278856, 0.275154, 0.263267, 0.249205, 0.230098, 0.221729, 0.218263, 0.213483, 0.20678, 0.201835, 0.196778, 0.195853, 0.19213, 0.187865, 0.176331, 0.172249, 0.17717, 0.174224, 0.171257, 0.170848, 0.162228, 0.158151, 0.164835, 0.162162, 0.161765, 0.161132, 0.157373, 0.157764, 0.156716, 0.156055, 0.155, 0.155, 0.154329, 0.156446, 0.156566, 0.149746, 0.146871, 0.148666, 0.146125, 0.14359, 0.140283, 0.144686, 0.139565, 0.138462, 0.138462, 0.137356, 0.139565, 0.138817, 0.136598, 0.135484, 0.135834, 0.135484, 0.134367, 0.132124, 0.132124, 0.132903, 0.129534, 0.131783, 0.131783, 0.134367, 0.128405, 0.128405, 0.125811, 0.125811, 0.124675, 0.127273, 0.125811, 0.125811, 0.127604, 0.126467, 0.126467, 0.126138, 0.126467, 0.129074, 0.129074]}}, \"_estimator_type\": \"classifier\"}"},"feature_names":["0","1","2","3","4","5","6","7","8","9","10","11","12","13","14","15","16","17","18","19","20","21","22","23","24","25","26","27","28","29","30","31","32","33","34","35","36","37","38","39","40","41","42","43","44","45","46","47","48","49","50","51","52","53","54","55","56","57","58","59","60","61","62","63","64","65","66","67","68","69","70","71","72","73"],"feature_types":["float","float","float","float","float","float","float","float","float","float","float","float","float","float","float","float","float","float","float","float","float","float","float","float","float","float","float","float","float","float","float","float","float","float","float","float","float","float","float","float","float","float","float","float","float","float","float","float","float","float","float","float","float","float","float","float","float","float","float","float","float","float","float","float","float","float","float","float","float","float","float","float","float","float"],"gradient_booster":{"model":{"gbtree_model_param":{"num_parallel_tree":"1","num_trees":"99","size_leaf_vector":"0"},"tree_info":[0,0,0,0,0,0,0,0,0,0,0,0,0,0,0,0,0,0,0,0,0,0,0,0,0,0,0,0,0,0,0,0,0,0,0,0,0,0,0,0,0,0,0,0,0,0,0,0,0,0,0,0,0,0,0,0,0,0,0,0,0,0,0,0,0,0,0,0,0,0,0,0,0,0,0,0,0,0,0,0,0,0,0,0,0,0,0,0,0,0,0,0,0,0,0,0,0,0,0],"trees":[{"base_weights":[4.4006967E-8,1.7623987E0,-1.3238608E0,1.9132158E0,-1.0719115E-1,-1.5946246E0,5.344923E-1,1.3469368E0,1.9829879E0,-1.6021458E0,1.585701E0,-1.7003038E0,-1.4868775E-1,9.3591136E-1,-1.7868692E0,1.5292958E0,-7.22443E-1,-1.7594383E0,1.9846046E0,-1.854524E0,1.3678515E0,1.7940477E0,-1.9536154E0,-1.8101946E0,-7.966411E-1,-1.5111464E0,7.8900295E-1,1.2167159E0,-1.3362359E0,1.5680112E0,-1.9961164E0,-1.9597384E0,1.6153669E0,-1.9812067E0,1.0637081E0,-1.6690961E0,1.9857203E0,1.8666613E0,-1.9974084E0,1.965667E0,-1.8236378E0,1.8776969E0,-1.8797828E0,-1.825515E0,1.0078015E0,-1.7152028E-1,-1.997727E0,-9.849347E-2,-1.9961983E0,1.3264816E0,-1.0203191E0,-1.2229147E0,1.3535655E0,9.741776E-1,-1.9926298E0,1.932493E0,-1.5032821E0,-1.944531E0,1.680003E0,1.8329126E0,-1.876024E0,-1.5032821E0,1.9863901E0,-1.7854695E0,1.9237418E0,-1.8549521E0,-5.4444575E-1,1.821665E0,-1.9214567E0,6.069841E-1,-1.788237E0,-1.9752928E0,1.3954397E0,1.6090871E0,-1.9682751E0,-1.9874117E0,9.6455175E-1,1.7113379E0,-1.9832685E0,1.4212623E0,-1.9627632E0,1.8816407E0,-1.8956082E0],"categories":[],"categories_nodes":[],"categories_segments":[],"categories_sizes":[],"default_left":[1,1,1,1,1,1,1,1,1,1,1,1,1,1,1,1,1,0,1,1,1,1,0,1,1,1,1,1,1,1,0,0,1,0,1,0,1,0,0,0,0,1,0,1,1,1,0,1,0,1,1,1,1,1,0,0,0,0,0,0,0,0,0,0,0,0,0,0,0,0,0,0,0,0,0,0,0,0,0,0,0,0,0],"id":0,"left_children":[1,3,5,7,9,11,13,15,17,19,21,23,25,27,29,31,33,-1,35,37,39,41,-1,43,45,47,49,51,53,55,-1,-1,57,-1,59,-1,61,-1,-1,-1,-1,63,-1,65,67,69,-1,71,-1,73,75,77,79,81,-1,-1,-1,-1,-1,-1,-1,-1,-1,-1,-1,-1,-1,-1,-1,-1,-1,-1,-1,-1,-1,-1,-1,-1,-1,-1,-1,-1,-1],"loss_changes":[1.1902553E5,6.170414E3,1.4659172E4,7.9739844E2,4.1389556E3,3.885164E3,3.4545806E3,8.405239E2,1.12546875E2,6.534983E2,5.69077E2,2.3516016E3,2.2151077E3,2.0176946E3,3.8687195E2,6.1715967E2,4.0866055E2,0E0,7.677344E1,4.295459E2,1.3445552E2,2.2628809E2,0E0,9.13875E2,1.9299203E3,4.8410522E2,1.0002035E3,9.4074414E2,5.2974884E2,3.9457817E1,0E0,0E0,4.6251758E2,0E0,1.739437E2,0E0,4.5078125E1,0E0,0E0,0E0,0E0,1.23059326E2,0E0,7.9135156E2,2.7736203E2,2.1305889E3,0E0,5.12231E2,0E0,7.409105E2,4.545548E2,3.3789203E2,6.008428E2,2.0584395E2,0E0,0E0,0E0,0E0,0E0,0E0,0E0,0E0,0E0,0E0,0E0,0E0,0E0,0E0,0E0,0E0,0E0,0E0,0E0,0E0,0E0,0E0,0E0,0E0,0E0,0E0,0E0,0E0,0E0],"parents":[2147483647,0,0,1,1,2,2,3,3,4,4,5,5,6,6,7,7,8,8,9,9,10,10,11,11,12,12,13,13,14,14,15,15,16,16,18,18,19,19,20,20,21,21,23,23,24,24,25,25,26,26,27,27,28,28,29,29,32,32,34,34,36,36,41,41,43,43,44,44,45,45,47,47,49,49,50,50,51,51,52,52,53,53],"right_children":[2,4,6,8,10,12,14,16,18,20,22,24,26,28,30,32,34,-1,36,38,40,42,-1,44,46,48,50,52,54,56,-1,-1,58,-1,60,-1,62,-1,-1,-1,-1,64,-1,66,68,70,-1,72,-1,74,76,78,80,82,-1,-1,-1,-1,-1,-1,-1,-1,-1,-1,-1,-1,-1,-1,-1,-1,-1,-1,-1,-1,-1,-1,-1,-1,-1,-1,-1,-1,-1],"split_conditions":[1.575E1,-3.155E1,2.125E0,1.78E0,2.5549998E0,1.815E0,1.0625E2,-3.585E1,1.015E0,2.7649999E0,-3.1999998E0,1.685E0,7.25E-1,-4.05E1,-3.81E0,2.55E-1,1.75E1,-5.278315E-1,-1.55E1,-3.57E0,-1.525E1,3E0,-5.8608466E-1,1.017E1,-4.75E1,-1.925E1,-1.95E0,-3.85E-1,-2.675E1,2.2244999E1,-5.9883493E-1,-5.8792156E-1,-7.5E0,-5.94362E-1,-8.75E-1,-5.0072885E-1,-6.325E0,5.599984E-1,-5.9922254E-1,5.897001E-1,-5.4709136E-1,1.44E0,-5.6393486E-1,2.245E0,-3.1100001E0,7.825E1,-5.9931815E-1,4.15E-1,-5.988595E-1,3.139E2,3.53E0,-1.795E0,-5E-1,3.5E0,-5.9778893E-1,5.797479E-1,-4.5098463E-1,-5.833593E-1,5.0400096E-1,5.4987377E-1,-5.628072E-1,-4.5098463E-1,5.9591705E-1,-5.356409E-1,5.7712257E-1,-5.5648565E-1,-1.6333373E-1,5.4649955E-1,-5.7643706E-1,1.8209523E-1,-5.364711E-1,-5.925879E-1,4.1863194E-1,4.8272616E-1,-5.9048253E-1,-5.9622353E-1,2.8936553E-1,5.134014E-1,-5.949806E-1,4.263787E-1,-5.88829E-1,5.644922E-1,-5.686825E-1],"split_indices":[54,39,62,57,52,22,54,39,52,22,34,57,36,44,36,73,63,0,43,21,3,64,0,37,44,53,34,52,4,1,0,0,68,0,26,0,38,0,0,0,0,2,0,52,18,54,0,52,0,50,18,7,64,63,0,0,0,0,0,0,0,0,0,0,0,0,0,0,0,0,0,0,0,0,0,0,0,0,0,0,0,0,0],"split_type":[0,0,0,0,0,0,0,0,0,0,0,0,0,0,0,0,0,0,0,0,0,0,0,0,0,0,0,0,0,0,0,0,0,0,0,0,0,0,0,0,0,0,0,0,0,0,0,0,0,0,0,0,0,0,0,0,0,0,0,0,0,0,0,0,0,0,0,0,0,0,0,0,0,0,0,0,0,0,0,0,0,0,0],"sum_hessian":[5.10125E4,2.1881832E4,2.9130666E4,2.02484E4,1.6334316E3,2.542619E4,3.7044783E3,2.2233926E3,1.8025008E4,8.674552E2,7.6597644E2,2.369427E4,1.7319182E3,3.1588367E3,5.4564166E2,2.043569E3,1.798235E2,7.313873E0,1.8017693E4,7.998618E2,6.759339E1,7.238586E2,4.211782E1,2.112441E4,2.5698596E3,7.057934E2,1.0261249E3,2.8118027E3,3.4703378E2,3.1652973E1,5.139887E2,4.8675083E1,1.9948939E3,1.0542065E2,7.4402855E1,5.04405E0,1.801265E4,2.9130947E1,7.707309E2,5.7253086E1,1.0340303E1,7.0822205E2,1.5636556E1,2.1010537E4,1.1387411E2,1.6909338E3,8.789257E2,1.8070778E2,5.2508563E2,7.913212E2,2.3480365E2,1.4892714E2,2.6628757E3,7.6672676E1,2.7036108E2,2.8626543E1,3.0264301E0,3.505615E1,1.9598378E3,5.9270706E1,1.5132151E1,3.0264301E0,1.8009623E4,8.322683E0,6.9989935E2,2.0538152E4,4.7238464E2,8.941046E1,2.4463644E1,1.1417612E3,5.4917255E2,7.99482E1,1.00759575E2,7.292794E2,6.2041817E1,1.5787877E2,7.692488E1,3.039196E1,1.1853518E2,2.6101653E3,5.2710323E1,5.85141E1,1.815858E1],"tree_param":{"num_deleted":"0","num_feature":"74","num_nodes":"83","size_leaf_vector":"0"}},{"base_weights":[5.213365E-5,-1.0571378E0,1.302855E0,-1.2307307E0,7.2599715E-1,1.4214046E0,-5.3468895E-1,-7.3022324E-1,-1.4592139E0,1.1267021E0,-7.5841886E-1,8.008337E-1,1.5370729E0,-1.4439245E0,1.0827078E0,-1.2802988E0,-2.056176E-1,-1.476252E0,4.332699E-1,-1.9815286E0,1.2166684E0,-1.0381416E0,1.1811733E0,-7.419939E-1,1.2137463E0,-1.637411E0,1.5386207E0,-1.6686634E0,6.0171895E-2,-1.6989024E0,1.4360087E0,-1.4931024E0,2.9981706E-1,-1.0851785E0,3.7398252E-1,2.4084895E0,-1.4831731E0,-1.5869035E0,1.5741365E0,-1.458145E0,-2.1149838E0,-1.5623592E0,1.2982249E0,-1.6778061E0,3.7028188E-1,1.5260422E0,-1.3846014E0,3.412101E-1,-1.7301975E0,-1.771239E0,1.2799834E0,-1.7187643E0,1.5395967E0,-1.5893997E0,-1.7817339E0,-1.5772934E0,1.3753656E0,1.5989646E0,-1.5875077E0,-1.5447221E0,1.3176546E0,-1.6283306E0,1.2676101E0,-1.5372909E0,-1.2013331E-1,-5.423981E-1,8.48145E-1,2.6448016E0,-9.7489214E-1,-1.4951797E0,5.751246E-1,1.9042233E0,-1.4345052E0,-2.252184E0,-1.3714172E0,1.3462402E0,-2.2081573E0,-1.9358302E0,-1.543535E0,1.3760931E0,-1.5888261E0,1.4073071E0,-1.1090631E0,-1.8909382E0,-1.6171931E0,-1.80757E0,1.3171986E0,4.2421243E-1,1.542123E0,-1.2865729E0,1.6313591E0,-1.4152107E0,1.6373976E0],"categories":[],"categories_nodes":[],"categories_segments":[],"categories_sizes":[],"default_left":[1,1,1,1,1,1,1,1,1,1,1,1,1,1,1,1,1,1,1,1,1,1,1,1,1,0,1,1,1,0,1,1,1,1,1,1,1,0,1,0,1,0,1,1,1,0,0,1,1,0,1,0,1,0,0,0,1,1,0,0,0,0,0,0,0,0,0,0,0,0,0,0,0,0,0,0,0,0,0,0,0,0,0,0,0,0,0,0,0,0,0,0,0],"id":1,"left_children":[1,3,5,7,9,11,13,15,17,19,21,23,25,27,29,31,33,35,37,39,41,43,45,47,49,-1,51,53,55,-1,57,59,61,63,65,67,69,-1,71,-1,73,-1,75,77,79,-1,-1,81,83,-1,85,-1,87,-1,-1,-1,89,91,-1,-1,-1,-1,-1,-1,-1,-1,-1,-1,-1,-1,-1,-1,-1,-1,-1,-1,-1,-1,-1,-1,-1,-1,-1,-1,-1,-1,-1,-1,-1,-1,-1,-1,-1],"loss_changes":[6.5098438E4,8.0773867E3,4.6130703E3,2.7180781E3,1.3780845E3,1.4264844E3,1.889687E3,2.1508909E3,5.270039E2,5.1236597E2,2.685742E2,1.9929329E3,8.4890625E1,2.780664E2,4.570609E2,1.2239775E3,1.9461641E3,4.385586E2,3.3998035E2,5.2578735E-1,4.0386548E2,3.890864E2,5.7483498E1,7.079374E2,4.9006177E2,0E0,5.591797E1,3.5803223E0,2.3445807E2,0E0,2.0504303E2,4.6733936E2,8.0952985E2,6.614027E2,1.00046155E3,2.5887909E1,3.9998828E2,0E0,9.616637E1,0E0,8.8591003E-1,0E0,2.9304907E2,7.2911377E0,2.6916647E2,0E0,0E0,4.9027228E2,3.2219238E0,0E0,2.7977832E2,0E0,4.655078E1,0E0,0E0,0E0,4.322458E1,4.755316E1,0E0,0E0,0E0,0E0,0E0,0E0,0E0,0E0,0E0,0E0,0E0,0E0,0E0,0E0,0E0,0E0,0E0,0E0,0E0,0E0,0E0,0E0,0E0,0E0,0E0,0E0,0E0,0E0,0E0,0E0,0E0,0E0,0E0,0E0,0E0],"parents":[2147483647,0,0,1,1,2,2,3,3,4,4,5,5,6,6,7,7,8,8,9,9,10,10,11,11,12,12,13,13,14,14,15,15,16,16,17,17,18,18,19,19,20,20,21,21,22,22,23,23,24,24,26,26,27,27,28,28,30,30,31,31,32,32,33,33,34,34,35,35,36,36,38,38,40,40,42,42,43,43,44,44,47,47,48,48,50,50,52,52,56,56,57,57],"right_children":[2,4,6,8,10,12,14,16,18,20,22,24,26,28,30,32,34,36,38,40,42,44,46,48,50,-1,52,54,56,-1,58,60,62,64,66,68,70,-1,72,-1,74,-1,76,78,80,-1,-1,82,84,-1,86,-1,88,-1,-1,-1,90,92,-1,-1,-1,-1,-1,-1,-1,-1,-1,-1,-1,-1,-1,-1,-1,-1,-1,-1,-1,-1,-1,-1,-1,-1,-1,-1,-1,-1,-1,-1,-1,-1,-1,-1,-1],"split_conditions":[1.715E0,2.6350002E0,6.45E0,-8.65E0,3.35E0,2.935E0,2.5549998E0,2.9500002E-1,1.1815001E1,1.44E0,1.1139999E1,3.75E-1,-3.4500003E-1,1.925E0,5.25E0,1.585E0,5.5E-2,-1.498E1,8.85E-1,-3.9E-1,-3.45E-1,-1.625E1,-4.45E-1,-4.775E1,1.95E-1,-4.912233E-1,-1E-1,2.245E0,-2.75E1,-5.0967073E-1,-3.5E0,1.015E1,4.25E-1,7.05E-1,2.705E0,5.159E1,2.875E0,-4.7607106E-1,-1.26E2,-4.3744352E-1,-4.15E1,-4.6870777E-1,1.4137E3,1.0525E2,-6.65E1,4.578127E-1,-4.1538042E-1,7.984E2,-3.335E1,-5.313717E-1,-5.265E1,-5.156293E-1,-9.2E-1,-4.7681993E-1,-5.345202E-1,-4.7318804E-1,2.595E0,1.4E-1,-4.7625235E-1,-4.6341664E-1,3.952964E-1,-4.884992E-1,3.8028303E-1,-4.611873E-1,-3.6039993E-2,-1.6271943E-1,2.5444353E-1,7.934405E-1,-2.9246765E-1,-4.4855392E-1,1.7253739E-1,5.71267E-1,-4.303516E-1,-6.756552E-1,-4.1142517E-1,4.0387207E-1,-6.624472E-1,-5.807491E-1,-4.6306053E-1,4.1282797E-1,-4.7664782E-1,4.2219216E-1,-3.3271897E-1,-5.672815E-1,-4.8515794E-1,-5.42271E-1,3.951596E-1,1.2726374E-1,4.6263692E-1,-3.859719E-1,4.8940775E-1,-4.2456323E-1,4.912193E-1],"split_indices":[52,62,34,34,34,52,67,52,47,67,47,62,57,22,58,17,62,18,17,52,52,29,46,39,32,0,37,52,69,0,64,37,72,73,37,0,12,0,44,0,44,0,10,54,69,0,0,10,39,0,19,0,67,0,0,0,18,73,0,0,0,0,0,0,0,0,0,0,0,0,0,0,0,0,0,0,0,0,0,0,0,0,0,0,0,0,0,0,0,0,0,0,0],"split_type":[0,0,0,0,0,0,0,0,0,0,0,0,0,0,0,0,0,0,0,0,0,0,0,0,0,0,0,0,0,0,0,0,0,0,0,0,0,0,0,0,0,0,0,0,0,0,0,0,0,0,0,0,0,0,0,0,0,0,0,0,0,0,0,0,0,0,0,0,0,0,0,0,0,0,0,0,0,0,0,0,0,0,0,0,0,0,0,0,0,0,0,0,0],"sum_hessian":[4.7262906E4,2.6090967E4,2.117194E4,2.3776566E4,2.314401E3,1.9889021E4,1.2829183E3,7.45346E3,1.6323105E4,1.8226371E3,4.9176367E2,3.1259492E3,1.6763072E4,8.2131506E2,4.6160324E2,3.6377031E3,3.8157568E3,1.6177677E4,1.4542915E2,5.0679966E1,1.7719572E3,4.301879E2,6.157578E1,6.598089E2,2.4661404E3,7.6540565E0,1.6755418E4,7.144536E2,1.0686147E2,5.159293E1,4.1001028E2,3.2059888E3,4.3171436E2,1.515328E3,2.300429E3,2.8153849E1,1.6149522E4,5.2346455E1,9.30827E1,1.272017E1,3.7959797E1,5.0001644E1,1.7219554E3,2.956989E2,1.34489E2,5.463716E1,6.938616E0,3.1508652E2,3.447224E2,5.2977077E1,2.4131633E3,4.491588E0,1.6750926E4,4.288687E2,2.855849E2,4.751021E1,5.935127E1,3.8948947E2,2.0520828E1,3.1486147E3,5.7374107E1,1.4404631E2,2.8766803E2,1.0314928E3,4.838352E2,7.8437616E2,1.5160527E3,2.6519865E1,1.6339831E0,1.6056137E4,9.338623E1,8.421078E1,8.871927E0,3.0333817E1,7.625979E0,1.6993019E3,2.265361E1,9.661671E1,1.990822E2,8.906195E1,4.542705E1,1.8161258E2,1.3347392E2,1.3580977E2,2.0891264E2,2.8173641E1,2.3849897E3,3.8236794E1,1.671269E4,4.8537674E0,5.4497498E1,4.4527493E0,3.850367E2],"tree_param":{"num_deleted":"0","num_feature":"74","num_nodes":"93","size_leaf_vector":"0"}},{"base_weights":[-1.2402498E-4,-9.301592E-1,1.0521681E0,-1.0708017E0,4.3884742E-1,1.2252561E0,-2.4638768E-1,-1.262103E0,-6.5118706E-1,9.5351774E-1,-4.7307503E-1,4.5463046E-1,1.2957274E0,1.209754E0,-6.934793E-1,-1.2892221E0,-2.9514698E-2,-1.1092943E0,-5.6453124E-2,1.2272049E0,-5.936782E-1,4.814334E-1,-1.2186626E0,-1.1715714E0,7.7225137E-1,8.18961E-1,1.3360915E0,1.2664306E0,-1.2585503E0,-1.0929412E0,2.5216553E-1,-1.3068893E0,6.338801E-1,9.4203526E-1,-1.3706328E0,-1.1397038E0,2.7303367E0,5.900605E-1,-7.9871315E-1,-2.3924584E0,1.2720468E0,-1.7834133E0,6.599515E-1,8.833157E-1,-1.3648556E0,4.372284E-1,-1.5727724E0,-1.6570853E0,2.237619E0,-4.1792372E-1,1.0578039E0,-1.711172E0,1.0465126E0,-1.549764E0,1.3376793E0,-1.3962593E0,1.3066847E0,-1.2405285E0,8.817342E-1,6.765956E-1,-1.4385355E0,1.5263742E0,-1.3142028E0,1.5584759E0,-1.6696507E0,-1.4092184E0,1.2998829E0,-1.187132E0,9.2117965E-1,-8.324581E-1,2.9363792E0,8.4575105E-1,-1.413043E0,-1.1975375E0,3.875228E-1,1.3017257E0,-2.0977378E0,-2.0757341E0,-1.4964435E0,-1.8600528E0,1.2319487E0,-1.5800211E0,1.0858696E0,-1.8117421E0,1.3265967E0,-1.9765776E0,-1.4238102E0,-1.4920762E0,-1.8742397E0,-1.2497677E0,1.2556413E0,-1.5535191E0,1.1353806E0,-1.6390047E0,-2.2772253E0,-1.889744E0,1.1312447E0,1.3388567E0,-1.4816864E0,-1.4746559E0,1.3354923E0,-1.3433161E0,7.581294E-1,-1.3789915E0,1.3386372E0,-1.5635402E0,9.6391016E-1],"categories":[],"categories_nodes":[],"categories_segments":[],"categories_sizes":[],"default_left":[1,1,1,1,1,1,1,1,1,1,1,1,1,1,1,1,1,1,1,1,1,1,1,1,1,1,1,1,0,1,1,1,1,1,0,1,1,1,1,0,1,1,1,1,0,1,1,1,0,1,1,1,1,0,1,0,1,1,1,1,0,0,0,0,0,0,0,0,0,0,0,0,0,0,0,0,0,0,0,0,0,0,0,0,0,0,0,0,0,0,0,0,0,0,0,0,0,0,0,0,0,0,0,0,0,0,0],"id":2,"left_children":[1,3,5,7,9,11,13,15,17,19,21,23,25,27,29,31,33,35,37,39,41,43,45,47,49,51,53,55,-1,57,59,61,63,65,-1,67,69,71,73,-1,75,77,79,81,-1,83,85,87,-1,89,91,93,95,-1,97,-1,99,101,103,105,-1,-1,-1,-1,-1,-1,-1,-1,-1,-1,-1,-1,-1,-1,-1,-1,-1,-1,-1,-1,-1,-1,-1,-1,-1,-1,-1,-1,-1,-1,-1,-1,-1,-1,-1,-1,-1,-1,-1,-1,-1,-1,-1,-1,-1,-1,-1],"loss_changes":[3.9787117E4,4.1556484E3,4.2873477E3,1.5701641E3,9.443999E2,9.1341797E2,1.461859E3,4.4925977E2,1.6701677E3,5.452704E2,5.1744183E2,7.300552E2,2.9564453E2,7.539514E1,6.49107E2,4.4766992E2,3.7965475E2,4.0744385E2,1.2810199E3,1.8045227E2,2.9046802E2,2.3806491E2,2.3994641E2,3.8616806E2,4.0201984E2,6.962139E2,6.7208984E1,5.715338E1,0E0,3.5306873E2,3.6758914E2,2.7205078E2,2.5902747E2,1.44017E2,0E0,3.3698096E2,2.2635284E1,7.319642E2,5.883728E2,0E0,1.1077197E2,5.264618E0,1.3947949E2,1.3282433E2,0E0,1.4775076E2,1.7418884E1,4.4715576E0,0E0,3.2086743E2,1.9487122E2,3.4881592E-1,2.77615E2,0E0,4.914258E1,0E0,4.2754883E1,2.3196094E2,8.9203636E1,2.6478986E2,0E0,0E0,0E0,0E0,0E0,0E0,0E0,0E0,0E0,0E0,0E0,0E0,0E0,0E0,0E0,0E0,0E0,0E0,0E0,0E0,0E0,0E0,0E0,0E0,0E0,0E0,0E0,0E0,0E0,0E0,0E0,0E0,0E0,0E0,0E0,0E0,0E0,0E0,0E0,0E0,0E0,0E0,0E0,0E0,0E0,0E0,0E0],"parents":[2147483647,0,0,1,1,2,2,3,3,4,4,5,5,6,6,7,7,8,8,9,9,10,10,11,11,12,12,13,13,14,14,15,15,16,16,17,17,18,18,19,19,20,20,21,21,22,22,23,23,24,24,25,25,26,26,27,27,29,29,30,30,31,31,32,32,33,33,35,35,36,36,37,37,38,38,40,40,41,41,42,42,43,43,45,45,46,46,47,47,49,49,50,50,51,51,52,52,54,54,56,56,57,57,58,58,59,59],"right_children":[2,4,6,8,10,12,14,16,18,20,22,24,26,28,30,32,34,36,38,40,42,44,46,48,50,52,54,56,-1,58,60,62,64,66,-1,68,70,72,74,-1,76,78,80,82,-1,84,86,88,-1,90,92,94,96,-1,98,-1,100,102,104,106,-1,-1,-1,-1,-1,-1,-1,-1,-1,-1,-1,-1,-1,-1,-1,-1,-1,-1,-1,-1,-1,-1,-1,-1,-1,-1,-1,-1,-1,-1,-1,-1,-1,-1,-1,-1,-1,-1,-1,-1,-1,-1,-1,-1,-1,-1,-1],"split_conditions":[1.505E0,2.475E0,-4.95E0,3.75E-1,5.425E1,8.15E-1,-6.425E1,8.605E0,2.665E0,-6.95E1,8.5E0,2.85E-1,1.715E0,8.85E1,1.395E0,2.875E0,1.215E2,9.075E1,1.02319995E3,1.4300001E0,1.065E0,-1.35E1,-3.225E1,3.6599998E0,7.35E-1,-1.4500001E-1,-2.15E1,6.85E-1,-3.7756512E-1,2.7649999E0,1.175E1,-4.1549997E0,-1.175E1,-5E-3,-4.1118985E-1,2.7350001E0,2.959E1,-5.65E1,3.375E0,-7.1773756E-1,1.8385E3,-4.05E1,6.25E0,2.7350001E0,-4.094567E-1,-3.375E1,2.85E0,3.75E-1,6.712857E-1,2.77E1,-2.05E-1,2.99E0,2.45E-1,-4.6492922E-1,-1.1E1,-4.188778E-1,1.675E1,3.7849998E0,1.1E1,1.95E-1,-4.3156067E-1,4.579123E-1,-3.9426085E-1,4.6754277E-1,-5.008952E-1,-4.2276555E-1,3.8996488E-1,-3.561396E-1,2.763539E-1,-2.4973743E-1,8.809138E-1,2.5372532E-1,-4.239129E-1,-3.5926127E-1,1.1625684E-1,3.9051774E-1,-6.2932134E-1,-6.2272024E-1,-4.4893306E-1,-5.580159E-1,3.6958462E-1,-4.7400635E-1,3.2576087E-1,-5.4352266E-1,3.9797905E-1,-5.929733E-1,-4.271431E-1,-4.4762287E-1,-5.6227195E-1,-3.7493032E-1,3.766924E-1,-4.6605575E-1,3.406142E-1,-4.9170142E-1,-6.831676E-1,-5.6692326E-1,3.393734E-1,4.0165702E-1,-4.4450593E-1,-4.423968E-1,4.006477E-1,-4.0299484E-1,2.2743884E-1,-4.1369745E-1,4.0159118E-1,-4.690621E-1,2.8917307E-1],"split_indices":[52,62,34,72,54,57,59,42,37,49,63,72,2,54,62,12,54,3,45,37,36,64,4,46,22,62,63,42,0,22,4,21,8,17,0,27,1,49,32,0,5,44,58,62,0,4,34,62,0,40,67,52,67,0,29,0,58,52,43,72,0,0,0,0,0,0,0,0,0,0,0,0,0,0,0,0,0,0,0,0,0,0,0,0,0,0,0,0,0,0,0,0,0,0,0,0,0,0,0,0,0,0,0,0,0,0,0],"split_type":[0,0,0,0,0,0,0,0,0,0,0,0,0,0,0,0,0,0,0,0,0,0,0,0,0,0,0,0,0,0,0,0,0,0,0,0,0,0,0,0,0,0,0,0,0,0,0,0,0,0,0,0,0,0,0,0,0,0,0,0,0,0,0,0,0,0,0,0,0,0,0,0,0,0,0,0,0,0,0,0,0,0,0,0,0,0,0,0,0,0,0,0,0,0,0,0,0,0,0,0,0,0,0,0,0,0,0],"sum_hessian":[4.0652324E4,2.1579809E4,1.9072516E4,1.956958E4,2.0102285E3,1.6829344E4,2.2431716E3,1.3440211E4,6.129368E3,1.2849714E3,7.252571E2,1.4106713E3,1.5418673E4,5.265464E2,1.7166252E3,1.3150824E4,2.8938696E2,3.4618982E3,2.66747E3,1.0920099E3,1.9296147E2,3.1822134E2,4.0703574E2,2.3006456E2,1.1806067E3,1.2051494E3,1.4213523E4,5.152033E2,1.1343074E1,1.2067224E3,5.0990277E2,1.3031428E4,1.1939682E2,1.6798831E2,1.2139867E2,3.4353933E3,2.6504763E1,1.4257965E3,1.2416736E3,1.272207E1,1.0792878E3,9.87869E1,9.417457E1,2.6176456E2,5.6456795E1,7.1667725E1,3.35368E2,2.0183458E2,2.8229982E1,2.2835704E2,9.522497E2,9.890543E1,1.106244E3,7.2799997E0,1.4206243E4,7.171087E0,5.080322E2,1.12315E3,8.3572495E1,4.0806323E2,1.0183954E2,3.3016743E1,1.2998411E4,8.5430145E1,3.396668E1,2.1801641E1,1.4618668E2,3.3585256E3,7.686767E1,1.2828066E0,2.5221956E1,1.2649119E3,1.6088469E2,9.2924316E2,3.1243036E2,1.0704735E3,8.814345E0,4.584934E1,5.2937565E1,1.7005016E1,7.716955E1,1.9372126E1,2.4239243E2,2.0015884E1,5.1651836E1,8.707013E1,2.4829787E2,1.1915973E2,8.267484E1,1.5270728E2,7.564977E1,2.6924217E1,9.253255E2,9.1176636E1,7.7287955E0,3.0430248E1,1.0758137E3,1.4200838E4,5.4050794E0,4.69345E0,5.0333875E2,1.0685254E3,5.462455E1,1.3711378E1,6.9861115E1,4.5882713E1,3.621805E2],"tree_param":{"num_deleted":"0","num_feature":"74","num_nodes":"107","size_leaf_vector":"0"}},{"base_weights":[-2.3846282E-4,-7.0221424E-1,1.0862428E0,-1.3821702E-1,-1.0400821E0,3.9081785E-1,1.2085378E0,-1.0587901E0,1.8414861E-1,-1.0839701E0,2.315506E-1,8.5558605E-1,-5.7737684E-1,7.9660136E-1,1.2261595E0,-1.1520228E0,1.4597869E0,-2.7823445E-1,7.854059E-1,-1.1482972E0,-4.2101797E-1,-1.2791257E0,9.248419E-1,-5.1156956E-1,1.0423666E0,-9.8447645E-1,8.064787E-1,-1.659116E0,1.0561234E0,1.2269478E0,-9.8554695E-1,-1.2716769E0,-1.6433783E-1,-1.0098671E0,1.5377188E0,-6.442836E-1,8.765503E-1,-6.8252116E-1,9.2509836E-1,-1.1734805E0,-2.3760963E-2,6.005017E-1,-8.940391E-1,3.2344031E0,4.4649088E-1,-1.5013072E0,1.0502311E0,-1.7683839E0,1.0877233E0,-1.5298381E0,2.160176E-1,-1.3808028E0,1.1412379E0,-1.9447855E0,-1.3013402E0,-1.7104253E0,1.148691E0,1.2275125E0,-1.0098697E0,1.0467954E0,-1.3257247E0,-1.2910407E0,8.895564E-1,1.266511E0,1.8637562E0,-1.1963226E0,8.656442E-3,-3.415478E-1,1.3186927E0,-1.5902456E0,1.3266007E0,-9.3378764E-1,1.0180303E0,-1.1831865E0,1.1194196E0,1.3952713E0,-1.3352906E0,1.1411397E0,-8.3636343E-1,-1.1296085E0,1.2885243E0,3.982605E0,-1.1688235E0,-1.2738417E0,9.479286E-1,-1.6427752E0,-1.2770575E0,1.2463967E0,-1.3839638E0,-4.5889238E-1,1.1450486E0,-1.8730246E0,-1.341327E0,1.1157494E0,-1.4764193E0,-1.2970811E0,1.2619637E0,-2.054345E0,-1.1134797E0,-2.220734E0,1.1707957E0,1.1023221E0,1.2300254E0],"categories":[],"categories_nodes":[],"categories_segments":[],"categories_sizes":[],"default_left":[1,1,1,1,1,1,1,1,1,1,1,1,1,1,1,1,1,1,1,1,1,0,1,1,1,1,1,1,1,1,0,1,1,0,1,1,1,1,1,1,1,1,1,1,1,1,1,0,1,1,1,0,1,0,0,1,1,1,0,0,0,0,0,0,0,0,0,0,0,0,0,0,0,0,0,0,0,0,0,0,0,0,0,0,0,0,0,0,0,0,0,0,0,0,0,0,0,0,0,0,0,0,0],"id":3,"left_children":[1,3,5,7,9,11,13,15,17,19,21,23,25,27,29,31,33,35,37,39,41,-1,43,45,47,49,51,53,55,57,-1,59,61,-1,63,65,67,69,71,73,75,77,79,81,83,85,87,-1,89,91,93,-1,95,-1,-1,97,99,101,-1,-1,-1,-1,-1,-1,-1,-1,-1,-1,-1,-1,-1,-1,-1,-1,-1,-1,-1,-1,-1,-1,-1,-1,-1,-1,-1,-1,-1,-1,-1,-1,-1,-1,-1,-1,-1,-1,-1,-1,-1,-1,-1,-1,-1],"loss_changes":[2.5759217E4,3.909667E3,1.1269609E3,2.2816372E3,7.163447E2,8.933042E2,8.0859375E1,4.699099E2,1.5834276E3,5.28458E2,4.5037488E2,3.4296014E2,3.6366785E2,2.983094E2,2.0052734E1,2.2710156E2,1.5337509E1,1.3616384E3,5.083307E2,3.2014062E2,5.313938E2,0E0,3.2397546E2,2.5176447E2,1.5237183E2,3.2647314E2,1.0918389E2,2.0545807E0,1.09897675E2,1.4890625E1,0E0,2.1634595E2,2.4930173E2,0E0,3.813919E0,8.814768E2,4.1806964E2,3.955141E2,3.9156616E2,2.4741797E2,4.6463647E2,2.7153217E2,3.8774005E2,1.7063141E2,2.12706E2,1.0580444E0,3.1984886E1,0E0,1.0354785E2,1.9656311E1,2.3993604E2,0E0,3.9317E1,0E0,0E0,5.964165E-1,3.3018555E1,2.0429688E0,0E0,0E0,0E0,0E0,0E0,0E0,0E0,0E0,0E0,0E0,0E0,0E0,0E0,0E0,0E0,0E0,0E0,0E0,0E0,0E0,0E0,0E0,0E0,0E0,0E0,0E0,0E0,0E0,0E0,0E0,0E0,0E0,0E0,0E0,0E0,0E0,0E0,0E0,0E0,0E0,0E0,0E0,0E0,0E0,0E0],"parents":[2147483647,0,0,1,1,2,2,3,3,4,4,5,5,6,6,7,7,8,8,9,9,10,10,11,11,12,12,13,13,14,14,15,15,16,16,17,17,18,18,19,19,20,20,22,22,23,23,24,24,25,25,26,26,27,27,28,28,29,29,31,31,32,32,34,34,35,35,36,36,37,37,38,38,39,39,40,40,41,41,42,42,43,43,44,44,45,45,46,46,48,48,49,49,50,50,52,52,55,55,56,56,57,57],"right_children":[2,4,6,8,10,12,14,16,18,20,22,24,26,28,30,32,34,36,38,40,42,-1,44,46,48,50,52,54,56,58,-1,60,62,-1,64,66,68,70,72,74,76,78,80,82,84,86,88,-1,90,92,94,-1,96,-1,-1,98,100,102,-1,-1,-1,-1,-1,-1,-1,-1,-1,-1,-1,-1,-1,-1,-1,-1,-1,-1,-1,-1,-1,-1,-1,-1,-1,-1,-1,-1,-1,-1,-1,-1,-1,-1,-1,-1,-1,-1,-1,-1,-1,-1,-1,-1,-1],"split_conditions":[2.0949998E0,-9.65E0,2.455E0,-4.35E-1,7.355E0,9.9795E2,3.135E0,3.5749998E0,4.0150003E0,2.0349998E0,8.5E0,2.85E-1,7.1549997E0,1.015E0,8.025E1,1.455E0,3.22E0,-1.25E0,-5.55E-1,2.2150002E0,2.5E0,-3.837377E-1,7.495E0,6.85E1,-5.65E-1,2.915E0,1.105E0,-2.1999998E0,4.85E-1,-2.0849998E1,-2.956641E-1,-3.25E1,7.55E-1,-3.0296013E-1,6.193E1,4.25E-1,2.9500002E-1,1.545E0,-5.5199997E1,5.075E1,-4.4699997E1,1.89315E3,3.2350001E0,-4.4075E2,6.15E-1,-8.25E0,1.95E1,-5.305152E-1,5.5E-2,2.75E0,1.4388501E3,-4.1424084E-1,8.5E0,-5.8343565E-1,-3.9040208E-1,5.3999996E0,-1.075E0,3.61E0,-3.0296093E-1,3.1403863E-1,-3.9771745E-1,-3.873122E-1,2.6686692E-1,3.799533E-1,5.5912685E-1,-3.588968E-1,2.5969327E-3,-1.0246434E-1,3.9560783E-1,-4.770737E-1,3.979802E-1,-2.8013632E-1,3.054091E-1,-3.5495597E-1,3.358259E-1,4.185814E-1,-4.0058717E-1,3.4234193E-1,-2.5090903E-1,-3.3888257E-1,3.865573E-1,1.1947815E0,-3.5064706E-1,-3.8215253E-1,2.843786E-1,-4.9283257E-1,-3.831173E-1,3.73919E-1,-4.1518918E-1,-1.3766772E-1,3.435146E-1,-5.619074E-1,-4.023981E-1,3.347248E-1,-4.429258E-1,-3.8912436E-1,3.7858912E-1,-6.163035E-1,-3.3404392E-1,-6.662202E-1,3.5123873E-1,3.3069664E-1,3.6900765E-1],"split_indices":[52,34,57,62,37,45,52,22,37,62,48,62,42,67,54,56,18,14,27,12,63,0,37,64,66,18,57,34,73,39,0,68,73,0,0,72,36,21,19,8,50,45,7,40,62,34,53,0,73,34,5,0,48,0,0,34,31,52,0,0,0,0,0,0,0,0,0,0,0,0,0,0,0,0,0,0,0,0,0,0,0,0,0,0,0,0,0,0,0,0,0,0,0,0,0,0,0,0,0,0,0,0,0],"split_type":[0,0,0,0,0,0,0,0,0,0,0,0,0,0,0,0,0,0,0,0,0,0,0,0,0,0,0,0,0,0,0,0,0,0,0,0,0,0,0,0,0,0,0,0,0,0,0,0,0,0,0,0,0,0,0,0,0,0,0,0,0,0,0,0,0,0,0,0,0,0,0,0,0,0,0,0,0,0,0,0,0,0,0,0,0,0,0,0,0,0,0,0,0,0,0,0,0,0,0,0,0,0,0],"sum_hessian":[3.3772453E4,2.0516857E4,1.3255593E4,7.6868076E3,1.2830051E4,1.9830837E3,1.127251E4,1.9930398E3,5.693768E3,1.2402161E4,4.2788885E2,1.3399675E3,6.431162E2,4.6432452E2,1.0808185E4,1.9224182E3,7.062153E1,3.218891E3,2.474877E3,1.1304535E4,1.0976268E3,1.3433308E2,2.9355576E2,1.6085286E2,1.1791147E3,4.9715332E2,1.4596288E2,4.3864574E1,4.2045996E2,1.0804779E4,3.4057279E0,1.714434E3,2.0798428E2,1.7945338E0,6.8826996E1,2.4444727E3,7.744184E2,2.1471431E2,2.2601626E3,1.1056879E4,2.4765547E2,3.4731284E2,7.50314E2,4.9379833E1,2.4417593E2,9.8482E1,6.237086E1,1.812175E1,1.1609929E3,3.4166644E2,1.554869E2,1.8959396E1,1.2700349E2,2.1923662E1,2.1940914E1,1.3047097E1,4.0741287E2,1.0802503E4,2.2761436E0,3.8637703E1,1.6757963E3,1.0041116E2,1.0757312E2,4.023929E1,2.8587706E1,1.3241316E3,1.1203412E3,2.0629768E2,5.681207E2,1.4803868E2,6.667563E1,1.07182304E2,2.1529802E3,1.1010754E4,4.6125668E1,1.1892195E2,1.2873352E2,2.5250903E2,9.480379E1,6.7765546E2,7.265859E1,4.228948E1,7.090355E0,5.476112E1,1.8941483E2,5.650817E1,4.1973835E1,5.8170975E1,4.199887E0,4.1243885E1,1.1197491E3,1.179682E2,2.2369824E2,1.0174046E2,5.374643E1,5.531849E0,1.21471634E2,6.7289205E0,6.3181767E0,2.0070746E0,4.054058E2,2.2121808E2,1.0581285E4],"tree_param":{"num_deleted":"0","num_feature":"74","num_nodes":"103","size_leaf_vector":"0"}},{"base_weights":[-1.3367416E-3,9.6902496E-1,-6.414475E-1,1.072044E0,-2.0586117E-1,-8.040858E-1,2.599879E-1,-1.0364733E0,1.0860146E0,-1.064436E0,7.599359E-1,-5.683245E-1,-1.1303586E0,7.320498E-1,-2.8116623E-1,1.0980064E0,-1.7373731E0,6.9926214E-1,1.1395895E0,-1.2861266E0,3.537619E-1,9.271561E-1,-1.4461564E0,-7.192871E-1,5.813099E-1,-1.1661636E0,8.994491E-2,-1.1293848E0,8.861192E-1,-8.5425043E-1,4.090441E-1,-1.8910664E0,-1.3155688E0,-7.149203E-2,9.7292566E-1,-1.3935932E0,1.1421611E0,-1.1836871E0,-1.3966516E0,-1.5827197E0,9.695197E-1,-1.4020921E0,1.019073E0,-9.7360384E-1,-2.577429E-1,-1.2683506E0,1.0999781E0,-4.035412E-1,-1.1830932E0,-1.2820112E0,1.3317993E0,-1.5460138E0,1.0783474E0,9.440792E-1,-1.3006176E0,-1.1223348E0,1.6463527E-1,-7.3190975E-1,7.3986566E-1,-7.511994E-1,1.1030352E0,-2.3476262E0,1.0212983E0,-1.3671372E0,1.1442263E0,-1.2737811E0,-1.635734E0,-1.1028936E0,1.138258E0,-1.4899606E0,1.0648178E0,-1.1076665E0,-3.0834717E-1,-1.2489973E0,2.6047645E-2,-1.3371142E0,1.2611142E0,-1.1672652E0,1.9953212E0,-1.2400982E0,-1.178402E0,1.72081E0,-1.291663E0,-1.7747175E0,-1.2330104E0,9.897386E-1,-1.7685908E0,-1.1992834E0,1.140931E0,8.1780183E-1,-1.390718E0,-1.4747633E0,9.634239E-1,8.8298637E-1,-1.1906323E0],"categories":[],"categories_nodes":[],"categories_segments":[],"categories_sizes":[],"default_left":[1,1,1,1,1,1,1,1,1,1,1,1,1,1,1,0,1,1,1,1,1,1,0,1,1,1,1,1,1,1,1,0,0,1,1,0,1,0,1,0,1,0,1,1,1,0,1,1,1,0,1,1,0,1,0,1,1,1,1,0,0,0,0,0,0,0,0,0,0,0,0,0,0,0,0,0,0,0,0,0,0,0,0,0,0,0,0,0,0,0,0,0,0,0,0],"id":4,"left_children":[1,3,5,7,9,11,13,15,17,19,21,23,25,27,29,-1,31,33,35,37,39,41,-1,43,45,47,49,51,53,55,57,-1,-1,59,61,-1,63,-1,65,-1,67,-1,69,71,73,-1,75,77,79,-1,81,83,-1,85,-1,87,89,91,93,-1,-1,-1,-1,-1,-1,-1,-1,-1,-1,-1,-1,-1,-1,-1,-1,-1,-1,-1,-1,-1,-1,-1,-1,-1,-1,-1,-1,-1,-1,-1,-1,-1,-1,-1,-1],"loss_changes":[1.7201908E4,1.3325234E3,2.4465977E3,2.992422E2,7.3732635E2,1.0867637E3,6.5193585E2,1.0233086E2,2.0752734E2,1.4842035E2,1.5576024E2,1.4250161E3,2.5915576E2,3.91859E2,4.70794E2,0E0,8.132019E-1,2.5864282E2,5.9109375E1,2.9573975E0,7.833307E1,8.486398E1,0E0,8.514658E2,9.1597894E2,7.388965E1,2.912287E2,9.78976E1,1.6082977E2,1.7776678E2,2.0444672E2,0E0,0E0,2.5800803E2,1.4772095E2,0E0,4.727539E1,0E0,3.5073242E0,0E0,1.8561043E1,0E0,4.4683594E1,4.1686914E2,7.255792E2,0E0,2.9428278E2,2.3428394E2,4.5898438E-2,0E0,9.375072E1,4.14151E0,0E0,1.5376428E2,0E0,9.102899E1,1.3960411E2,1.5497842E2,1.1689711E2,0E0,0E0,0E0,0E0,0E0,0E0,0E0,0E0,0E0,0E0,0E0,0E0,0E0,0E0,0E0,0E0,0E0,0E0,0E0,0E0,0E0,0E0,0E0,0E0,0E0,0E0,0E0,0E0,0E0,0E0,0E0,0E0,0E0,0E0,0E0,0E0],"parents":[2147483647,0,0,1,1,2,2,3,3,4,4,5,5,6,6,7,7,8,8,9,9,10,10,11,11,12,12,13,13,14,14,16,16,17,17,18,18,19,19,20,20,21,21,23,23,24,24,25,25,26,26,27,27,28,28,29,29,30,30,33,33,34,34,36,36,38,38,40,40,42,42,43,43,44,44,46,46,47,47,48,48,50,50,51,51,53,53,55,55,56,56,57,57,58,58],"right_children":[2,4,6,8,10,12,14,16,18,20,22,24,26,28,30,-1,32,34,36,38,40,42,-1,44,46,48,50,52,54,56,58,-1,-1,60,62,-1,64,-1,66,-1,68,-1,70,72,74,-1,76,78,80,-1,82,84,-1,86,-1,88,90,92,94,-1,-1,-1,-1,-1,-1,-1,-1,-1,-1,-1,-1,-1,-1,-1,-1,-1,-1,-1,-1,-1,-1,-1,-1,-1,-1,-1,-1,-1,-1,-1,-1,-1,-1,-1,-1],"split_conditions":[1.575E1,-3.155E1,2.0349998E0,6.85E-1,1.755E0,-4.45E1,1.0588501E3,-2.805E0,5.65E-1,2.9050002E0,-1.485E1,-3.05E1,2.2150002E0,9.15E-1,3.0549998E0,3.294019E-1,-3.6E1,1.0699999E0,-6.15E-1,2.65E-1,1.0699999E0,9.5E-2,-4.3384692E-1,6.65E-1,2.45E-1,-2.255E0,1.095E0,3.545E0,-4.95E1,3.4450002E0,2.35E-1,-5.673199E-1,-3.9467067E-1,3E0,-4.5E0,-4.1807798E-1,-2.05E1,-3.5510615E-1,1.795E0,-4.7481593E-1,8.3E-1,-4.2062765E-1,2.5E-1,3.5149999E0,-5.55E-1,-3.805052E-1,-5.45E-1,-2.2649999E0,-8.65E0,-3.8460335E-1,-1.665E0,-4.05E1,3.2350424E-1,1.70155E3,-3.901853E-1,1.284E1,-2.245E0,5.1800003E0,3.075E1,-2.2535984E-1,3.3091056E-1,-7.042879E-1,3.063895E-1,-4.1014117E-1,3.4326792E-1,-3.8213435E-1,-4.907202E-1,-3.308681E-1,3.414774E-1,-4.469882E-1,3.1944534E-1,-3.3229995E-1,-9.250415E-2,-3.746992E-1,7.814294E-3,-4.0113428E-1,3.7833428E-1,-3.5017955E-1,5.985964E-1,-3.7202948E-1,-3.535206E-1,5.1624304E-1,-3.8749894E-1,-5.324153E-1,-3.6990315E-1,2.9692158E-1,-5.3057724E-1,-3.5978502E-1,3.4227931E-1,2.4534056E-1,-4.172154E-1,-4.42429E-1,2.8902718E-1,2.6489592E-1,-3.5718971E-1],"split_indices":[54,39,62,52,22,44,45,36,27,52,29,69,12,42,67,0,39,62,57,62,46,67,0,73,52,16,57,32,49,62,57,0,0,7,43,0,63,0,52,0,66,0,8,18,27,0,46,16,34,0,33,44,0,5,0,37,23,32,4,0,0,0,0,0,0,0,0,0,0,0,0,0,0,0,0,0,0,0,0,0,0,0,0,0,0,0,0,0,0,0,0,0,0,0,0],"split_type":[0,0,0,0,0,0,0,0,0,0,0,0,0,0,0,0,0,0,0,0,0,0,0,0,0,0,0,0,0,0,0,0,0,0,0,0,0,0,0,0,0,0,0,0,0,0,0,0,0,0,0,0,0,0,0,0,0,0,0,0,0,0,0,0,0,0,0,0,0,0,0,0,0,0,0,0,0,0,0,0,0,0,0,0,0,0,0,0,0,0,0,0,0,0,0],"sum_hessian":[2.7692135E4,1.1006524E4,1.668561E4,1.0119308E4,8.8721686E2,1.4135391E4,2.5502195E3,6.612528E1,1.0053183E4,4.696262E2,4.1759067E2,8.207488E3,5.9279023E3,1.3618723E3,1.1883472E3,1.6205976E1,4.9919304E1,1.2248878E3,8.828295E3,4.0621967E2,6.3406548E1,3.887067E2,2.8883955E1,7.2551616E3,9.5232684E2,5.758972E3,1.6892986E2,1.03620476E2,1.2582518E3,6.4913245E2,5.392147E2,3.403474E1,1.58845625E1,3.211448E2,9.03743E2,8.404617E0,8.81989E3,2.1689828E2,1.8932137E2,1.4918708E1,4.848784E1,1.4215695E1,3.7449103E2,4.676978E3,2.5781838E3,2.0824474E2,7.440821E2,1.25608154E2,5.6333643E3,8.0245346E1,8.868451E1,8.742241E1,1.6198067E1,1.2263162E3,3.1935585E1,5.1383344E2,1.3529898E2,1.2093066E2,4.1828406E2,2.0365096E2,1.1749385E2,1.2293888E1,8.914491E2,6.709226E0,8.813181E3,1.29233E2,6.0088367E1,3.233873E0,4.5253967E1,6.140181E0,3.6835083E2,3.8919968E3,7.849813E2,5.73077E2,2.0051067E3,4.5693653E1,6.983884E2,9.5664825E1,2.994333E1,4.0833124E2,5.2250327E3,7.753201E1,1.1152491E1,4.7815144E1,3.960726E1,1.2066412E3,1.9674915E1,4.9739276E2,1.6440674E1,9.561846E1,3.9680523E1,8.417663E1,3.675403E1,3.8991934E2,2.8364714E1],"tree_param":{"num_deleted":"0","num_feature":"74","num_nodes":"95","size_leaf_vector":"0"}},{"base_weights":[-2.1018928E-3,-5.376353E-1,9.6643287E-1,-3.8892888E-2,-8.376456E-1,3.0471906E-1,1.0858898E0,-7.210694E-1,3.943699E-1,-9.158228E-1,-2.2152431E-2,5.762888E-1,-7.7018225E-1,7.4276805E-1,1.108895E0,-1.1229689E0,1.5558352E-1,-1.1418834E-1,7.632023E-1,-6.581332E-1,-1.1156324E0,8.164213E-1,-8.294217E-1,-5.549619E-1,7.5284773E-1,1.1009883E0,-1.1602429E0,-1.7067811E0,8.4399205E-1,-1.3637356E0,1.109515E0,7.773208E-1,-1.1962245E0,-1.1936432E0,7.9090923E-1,-3.7618843E-1,8.8424695E-1,-9.541585E-1,8.379501E-1,-9.497965E-1,-1.9746317E-1,-1.1352053E0,-1.3713859E-1,-1.1957893E0,1.1397258E0,-1.1579404E0,1.1178465E0,-1.3345628E0,9.578396E-1,-1.8647852E0,8.038017E-1,8.0077684E-1,1.1836492E0,9.4858223E-1,-1.3219299E0,-2.1638918E0,-1.1379417E0,-1.487269E0,9.253259E-1,1.1099031E0,-6.1356926E-1,-1.16831E0,1.2979321E0,-1.2371527E0,-2.1535993E-1,-1.3331227E0,8.1601715E-1,-1.2168912E0,1.074069E0,-9.586042E-1,1.6441594E-1,-1.4083925E0,1.1202617E0,9.7432137E-1,-1.3843498E0,-1.3142883E0,8.8304377E-1,1.8032248E0,-9.880132E-1,-8.6011815E-1,4.6638307E-1,-1.1849353E0,6.1276984E-1,1.7767262E0,4.7783953E-1,1.2983067E0,-9.4929665E-1,1.1306424E0,-1.1557968E0,-1.9888077E0,-8.936704E-1,-5.310415E-1,8.8094765E-1,-1.6709725E0,-1.1798456E0,-9.5415837E-1,-2.4317818E0,9.705895E-1,-1.4648284E0,7.3995924E-1,1.1106471E0],"categories":[],"categories_nodes":[],"categories_segments":[],"categories_sizes":[],"default_left":[1,1,1,1,1,1,1,1,1,1,1,1,1,1,1,1,1,1,1,1,1,1,1,1,1,1,1,1,1,0,1,1,1,1,1,1,1,1,1,1,1,0,1,0,1,0,1,0,1,1,1,0,0,0,1,1,0,0,1,1,0,0,0,0,0,0,0,0,0,0,0,0,0,0,0,0,0,0,0,0,0,0,0,0,0,0,0,0,0,0,0,0,0,0,0,0,0,0,0,0,0],"id":5,"left_children":[1,3,5,7,9,11,13,15,17,19,21,23,25,27,29,31,33,35,37,39,41,43,45,47,49,51,53,55,57,-1,59,61,63,65,67,69,71,73,75,77,79,-1,81,-1,83,-1,85,-1,87,89,91,-1,-1,-1,93,95,-1,-1,97,99,-1,-1,-1,-1,-1,-1,-1,-1,-1,-1,-1,-1,-1,-1,-1,-1,-1,-1,-1,-1,-1,-1,-1,-1,-1,-1,-1,-1,-1,-1,-1,-1,-1,-1,-1,-1,-1,-1,-1,-1,-1],"loss_changes":[1.1727107E4,2.1784253E3,6.3601025E2,1.6168447E3,5.795405E2,3.6020468E2,5.3001465E1,7.488037E2,6.2763715E2,4.2638867E2,5.3971606E2,1.9704172E2,1.830134E2,1.0842702E2,1.1305664E1,2.0375757E2,5.742316E2,3.684654E2,2.4975146E2,4.869259E2,8.930322E1,2.5577371E2,2.6114862E2,1.586999E2,1.1513229E2,1.3077927E-1,7.1675385E1,2.0759315E0,8.0069244E1,0E0,4.953125E0,5.6911964E1,5.60708E1,6.1214325E1,2.60152E2,3.5136877E2,1.6002396E2,6.884347E1,1.8157959E2,2.3531506E2,6.19236E2,0E0,7.3596344E1,0E0,1.4142444E2,0E0,2.329609E1,0E0,1.8098965E1,2.181778E-1,8.659729E1,0E0,0E0,0E0,7.5625E0,4.5636368E-1,0E0,0E0,4.4875122E1,9.3652344E-1,0E0,0E0,0E0,0E0,0E0,0E0,0E0,0E0,0E0,0E0,0E0,0E0,0E0,0E0,0E0,0E0,0E0,0E0,0E0,0E0,0E0,0E0,0E0,0E0,0E0,0E0,0E0,0E0,0E0,0E0,0E0,0E0,0E0,0E0,0E0,0E0,0E0,0E0,0E0,0E0,0E0],"parents":[2147483647,0,0,1,1,2,2,3,3,4,4,5,5,6,6,7,7,8,8,9,9,10,10,11,11,12,12,13,13,14,14,15,15,16,16,17,17,18,18,19,19,20,20,21,21,22,22,23,23,24,24,25,25,26,26,27,27,28,28,30,30,31,31,32,32,33,33,34,34,35,35,36,36,37,37,38,38,39,39,40,40,42,42,44,44,46,46,48,48,49,49,50,50,54,54,55,55,58,58,59,59],"right_children":[2,4,6,8,10,12,14,16,18,20,22,24,26,28,30,32,34,36,38,40,42,44,46,48,50,52,54,56,58,-1,60,62,64,66,68,70,72,74,76,78,80,-1,82,-1,84,-1,86,-1,88,90,92,-1,-1,-1,94,96,-1,-1,98,100,-1,-1,-1,-1,-1,-1,-1,-1,-1,-1,-1,-1,-1,-1,-1,-1,-1,-1,-1,-1,-1,-1,-1,-1,-1,-1,-1,-1,-1,-1,-1,-1,-1,-1,-1,-1,-1,-1,-1,-1,-1],"split_conditions":[2.1750002E0,-1.235E1,2.455E0,1.105E0,7.745E0,2.8705E2,3.61E0,8.05E-1,7.25E-1,8.75E0,-3.15E1,1.5E-2,-2.375E1,1.95E-1,-1.25E1,-2.155E1,-6.825E1,3.5000002E-1,6.75E-1,2.085E0,3.395E0,-7.5E-1,5.13E0,6.85E1,-2.8049998E0,1.3626499E3,-4.005E0,-3.5E-1,-4.5E-2,-4.0912068E-1,8.025E1,-2.17E1,2.2350001E0,2.46E0,2.3E0,3.435E0,-1.4500001E-1,7.35E-1,-5.515E1,-3.995E0,3.45E-1,-3.405616E-1,2.175E1,-3.587368E-1,-1.055E0,-3.4738213E-1,2.2E0,-4.0036884E-1,2.05E1,-3.2E0,3E-2,2.4023306E-1,3.5509476E-1,2.845747E-1,5.45E0,1.7999999E-1,-3.4138253E-1,-4.4618073E-1,-1.6E1,-9.5500004E-1,-1.8407078E-1,-3.50493E-1,3.8937965E-1,-3.711458E-1,-6.460798E-2,-3.9993683E-1,2.4480516E-1,-3.6506736E-1,3.222207E-1,-2.8758126E-1,4.9324784E-2,-4.2251778E-1,3.3607852E-1,2.922964E-1,-4.1530496E-1,-3.9428648E-1,2.6491314E-1,5.4096746E-1,-2.9640397E-1,-2.5803545E-1,1.3991493E-1,-3.554806E-1,1.8383096E-1,5.330179E-1,1.4335187E-1,3.8949203E-1,-2.84789E-1,3.3919275E-1,-3.4673905E-1,-5.966423E-1,-2.6810113E-1,-1.5931246E-1,2.642843E-1,-5.0129175E-1,-3.539537E-1,-2.8624752E-1,-7.2953457E-1,2.9117686E-1,-4.3944854E-1,2.2198778E-1,3.3319414E-1],"split_indices":[52,34,57,67,47,35,52,27,22,34,64,62,54,72,48,60,9,14,32,42,62,58,67,64,18,5,36,34,67,0,54,60,66,62,37,37,57,22,19,31,72,0,3,0,46,0,34,0,53,34,73,0,0,0,34,67,0,0,29,67,0,0,0,0,0,0,0,0,0,0,0,0,0,0,0,0,0,0,0,0,0,0,0,0,0,0,0,0,0,0,0,0,0,0,0,0,0,0,0,0,0],"split_type":[0,0,0,0,0,0,0,0,0,0,0,0,0,0,0,0,0,0,0,0,0,0,0,0,0,0,0,0,0,0,0,0,0,0,0,0,0,0,0,0,0,0,0,0,0,0,0,0,0,0,0,0,0,0,0,0,0,0,0,0,0,0,0,0,0,0,0,0,0,0,0,0,0,0,0,0,0,0,0,0,0,0,0,0,0,0,0,0,0,0,0,0,0,0,0,0,0,0,0,0,0],"sum_hessian":[2.2607402E4,1.4558174E4,8.049229E3,5.4684517E3,9.089723E3,1.2314346E3,6.8177944E3,2.123817E3,3.3446348E3,8.294452E3,7.9527014E2,9.834369E2,2.4799774E2,4.3047858E2,6.3873154E3,1.4560248E3,6.677921E2,1.4062885E3,1.9383463E3,3.6244204E3,4.6700317E3,3.9006638E2,4.0520377E2,1.324781E2,8.509588E2,4.246502E1,2.0553271E2,1.6453526E1,4.1402505E2,1.0500495E0,6.3862656E3,5.3689133E1,1.4023357E3,2.1350264E2,4.542895E2,1.1144644E3,2.9182413E2,8.0356606E1,1.8579897E3,2.2186611E3,1.4057594E3,4.578292E3,9.173956E1,5.3623177E1,3.364432E2,3.4705786E2,5.8145905E1,8.750266E1,4.4975437E1,1.5568515E1,8.3539026E2,1.1475458E1,3.098956E1,1.4289768E1,1.9124295E2,7.567971E0,8.885554E0,1.3374935E1,4.0065012E2,6.385183E3,1.082363E0,1.1070882E1,4.261825E1,1.3459138E3,5.6421867E1,1.9996109E2,1.354156E1,5.574204E1,3.9854745E2,5.361135E2,5.7835077E2,2.6774092E1,2.6505002E2,1.4425319E1,6.593129E1,3.755204E1,1.8204377E3,2.9744806E1,2.1889163E3,7.03363E2,7.023964E2,3.802695E1,5.371261E1,1.705863E2,1.6585689E2,5.3819435E1,4.3264685E0,4.200624E1,2.969197E0,1.2876123E1,2.6923914E0,4.5321194E1,7.900691E2,5.221409E1,1.3902887E2,2.1990933E0,5.368878E0,3.9378668E2,6.8634267E0,1.4814877E1,6.370368E3],"tree_param":{"num_deleted":"0","num_feature":"74","num_nodes":"101","size_leaf_vector":"0"}},{"base_weights":[-4.556068E-3,-4.3208942E-1,1.0281385E0,-7.5870824E-1,-8.703948E-5,4.0257835E-1,1.0606854E0,-8.3982813E-1,3.4825167E-1,-9.034321E-1,2.4998996E-1,7.8956914E-1,-7.614366E-1,8.5295415E-1,1.078814E0,-9.187729E-1,1.3986272E-1,-1.2813785E0,5.1590097E-1,-1.0023925E0,7.737608E-1,4.4212145E-1,-7.6520175E-1,-2.0098295E0,8.9898175E-1,8.115243E-1,-1.4255439E0,-1.8144302E0,9.0592533E-1,8.0998635E-1,1.0796473E0,-9.918443E-1,-3.9754432E-1,7.3489034E-1,-8.8159835E-1,-1.5782071E0,-1.1346292E0,6.0773945E-1,-1.5760181E0,-1.0879555E0,1.1358852E0,1.5810952E0,-1.188305E0,6.941478E-1,-1.0944444E-1,2.0639775E-2,-1.0419633E0,-1.0973147E0,-2.5104403E0,9.919739E-1,-1.5229741E0,1.0406209E0,-1.6063832E0,-1.8079842E0,-1.1767974E0,-7.7274674E-1,-1.9920325E0,-2.1233804E0,9.35475E-1,1.0220268E0,-1.3040991E0,-1.0146039E0,7.693946E-1,5.8448553E-1,-9.914581E-1,-1.1921401E0,1.120396E0,-1.2533848E0,9.5878E-1,-1.1935254E0,7.058456E-1,-1.9971334E0,-1.1351295E0,8.61347E-1,-1.1186562E0,-7.7140427E-1,1.6797465E0,7.7607465E-1,-2.8887805E-1,-1.0428709E0,2.7186388E-1,-1.1328144E0,9.338726E-1,8.2670784E-1,-1.1225508E0,-1.2994753E0,1.0405384E0,-2.5318143E0,-6.764525E-1,-1.4638704E0,9.6526074E-1],"categories":[],"categories_nodes":[],"categories_segments":[],"categories_sizes":[],"default_left":[1,1,1,1,1,1,1,1,1,1,1,1,1,1,1,1,1,1,1,1,1,1,1,1,1,1,1,1,1,1,0,1,1,1,1,0,0,1,1,1,0,1,0,1,1,1,1,0,0,1,0,0,0,0,0,0,0,1,1,0,0,0,0,0,0,0,0,0,0,0,0,0,0,0,0,0,0,0,0,0,0,0,0,0,0,0,0,0,0,0,0],"id":6,"left_children":[1,3,5,7,9,11,13,15,17,19,21,23,25,27,29,31,33,35,37,39,41,43,45,47,49,51,53,55,57,59,-1,61,63,65,67,-1,-1,69,71,73,-1,75,-1,77,79,81,83,-1,-1,85,-1,-1,-1,-1,-1,-1,-1,87,89,-1,-1,-1,-1,-1,-1,-1,-1,-1,-1,-1,-1,-1,-1,-1,-1,-1,-1,-1,-1,-1,-1,-1,-1,-1,-1,-1,-1,-1,-1,-1,-1],"loss_changes":[8.121224E3,1.8355151E3,1.0922266E2,6.654907E2,1.2656956E3,1.2130494E2,1.8356445E1,5.3396533E2,1.3904022E2,2.0239459E2,8.5622046E2,6.3551224E1,7.1528755E1,6.036856E1,1.7871094E-1,2.4289502E2,3.1402246E2,2.7983093E-1,8.9326126E1,2.1118066E2,1.099828E2,5.13067E2,1.5197507E2,8.5027695E-1,4.536093E1,1.3102597E1,2.413002E0,1.952362E-2,3.8525757E1,9.642953E0,0E0,2.2532422E2,4.5962936E2,2.4377312E2,1.3137117E2,0E0,0E0,7.883481E1,1.3761749E0,6.7024414E1,0E0,1.2616425E1,0E0,2.0422986E2,4.1253006E2,1.9377516E2,7.8740845E1,0E0,0E0,2.2284882E1,0E0,0E0,0E0,0E0,0E0,0E0,0E0,7.9847145E-1,3.0352905E1,0E0,0E0,0E0,0E0,0E0,0E0,0E0,0E0,0E0,0E0,0E0,0E0,0E0,0E0,0E0,0E0,0E0,0E0,0E0,0E0,0E0,0E0,0E0,0E0,0E0,0E0,0E0,0E0,0E0,0E0,0E0,0E0],"parents":[2147483647,0,0,1,1,2,2,3,3,4,4,5,5,6,6,7,7,8,8,9,9,10,10,11,11,12,12,13,13,14,14,15,15,16,16,17,17,18,18,19,19,20,20,21,21,22,22,23,23,24,24,25,25,26,26,27,27,28,28,29,29,31,31,32,32,33,33,34,34,37,37,38,38,39,39,41,41,43,43,44,44,45,45,46,46,49,49,57,57,58,58],"right_children":[2,4,6,8,10,12,14,16,18,20,22,24,26,28,30,32,34,36,38,40,42,44,46,48,50,52,54,56,58,60,-1,62,64,66,68,-1,-1,70,72,74,-1,76,-1,78,80,82,84,-1,-1,86,-1,-1,-1,-1,-1,-1,-1,88,90,-1,-1,-1,-1,-1,-1,-1,-1,-1,-1,-1,-1,-1,-1,-1,-1,-1,-1,-1,-1,-1,-1,-1,-1,-1,-1,-1,-1,-1,-1,-1,-1],"split_conditions":[2.935E0,6.85E-1,1.97E0,2.855E0,-4.5499998E-1,1.0246E3,4.2349997E0,1.835E0,2.05E-1,3.045E0,-4.35E1,-1.6015E2,-5.55E1,-2.9000002E-1,1.325E1,-1.475E1,-1.5E0,-9.95E0,-4.385E1,4.25E0,-3.18E0,8.0515E2,-4.475E1,5.1E-1,-1.6349998E1,-1.1700001E0,-3.9499998E0,5.5E-2,-8.7E-1,1.01885E3,3.238942E-1,1.017E1,-2.325E1,1.14999995E-1,5.705E0,-4.7346216E-1,-3.4038877E-1,-5.135E1,-1.01E1,-3.55E0,3.407656E-1,4.3500004E0,-3.564915E-1,1.843E3,2.75E-1,8.65E-1,-2.55E1,-3.2919443E-1,-7.5313216E-1,2.9000002E-1,-4.5689225E-1,3.121863E-1,-4.8191497E-1,-5.423953E-1,-3.5303923E-1,-2.3182403E-1,-5.9760976E-1,-9.5E0,-4E-2,3.0660805E-1,-3.9122975E-1,-3.0438116E-1,2.3081838E-1,1.7534566E-1,-2.9743746E-1,-3.5764205E-1,3.3611882E-1,-3.7601545E-1,2.8763402E-1,-3.5805765E-1,2.1175368E-1,-5.9914005E-1,-3.4053886E-1,2.584041E-1,-3.3559686E-1,-2.3142129E-1,5.0392395E-1,2.328224E-1,-8.666342E-2,-3.1286126E-1,8.155917E-2,-3.3984435E-1,2.801618E-1,2.4801236E-1,-3.3676526E-1,-3.898426E-1,3.1216154E-1,-7.595443E-1,-2.0293577E-1,-4.3916115E-1,2.8957823E-1],"split_indices":[52,52,57,62,62,65,52,17,73,7,44,20,34,67,58,20,68,34,20,22,28,10,50,62,29,11,34,73,6,5,0,37,3,46,32,0,0,19,34,21,0,42,0,45,57,36,63,0,0,66,0,0,0,0,0,0,0,34,73,0,0,0,0,0,0,0,0,0,0,0,0,0,0,0,0,0,0,0,0,0,0,0,0,0,0,0,0,0,0,0,0],"split_type":[0,0,0,0,0,0,0,0,0,0,0,0,0,0,0,0,0,0,0,0,0,0,0,0,0,0,0,0,0,0,0,0,0,0,0,0,0,0,0,0,0,0,0,0,0,0,0,0,0,0,0,0,0,0,0,0,0,0,0,0,0,0,0,0,0,0,0,0,0,0,0,0,0,0,0,0,0,0,0,0,0,0,0,0,0,0,0,0,0,0,0],"sum_hessian":[1.8392137E4,1.3007601E4,5.384537E3,7.4068423E3,5.600758E3,2.6695477E2,5.1175825E3,6.901342E3,5.055005E2,1.2137512E3,4.387007E3,2.0058842E2,6.6366356E1,4.1461987E2,4.7029624E3,6.3867515E3,5.145904E2,4.653315E1,4.5896735E2,1.1465056E3,6.724559E1,3.68934E3,6.976667E2,6.891642E0,1.936968E2,1.9635952E1,4.6730404E1,7.426037E0,4.0719385E2,1.7538158E1,4.6854243E3,5.6006846E3,7.8606714E2,3.2534756E2,1.8924284E2,1.2167523E1,3.4365627E1,4.40345E2,1.8622345E1,1.1028657E3,4.3639893E1,4.7779747E1,1.9465843E1,2.5320945E3,1.1572456E3,1.8195268E2,5.15714E2,3.5721912E0,3.3194506E0,1.8710329E2,6.5934963E0,1.845679E1,1.1791605E0,1.5945807E1,3.0784595E1,1.8611141E0,5.564923E0,3.2491195E0,4.0394473E2,1.6408924E1,1.1292334E0,5.529652E3,7.10328E1,2.9624506E2,4.8982205E2,5.388745E1,2.7146008E2,1.5770319E2,3.1539667E1,2.2167933E1,4.1817706E2,7.7193785E0,1.0902966E1,1.6680836E1,1.0861848E3,1.6485246E0,4.6131226E1,2.3374949E3,1.9459976E2,3.351291E2,8.221166E2,8.0295456E1,1.0165722E2,2.0938221E1,4.947758E2,3.348562E0,1.8375473E2,1.9491372E0,1.2999823E0,4.3627605E0,3.9958197E2],"tree_param":{"num_deleted":"0","num_feature":"74","num_nodes":"91","size_leaf_vector":"0"}},{"base_weights":[-6.2034624E-3,-3.81607E-1,9.92879E-1,-1.5430884E-1,-9.491645E-1,5.416779E-1,1.0481188E0,7.752046E-2,-8.5080016E-1,-2.0314609E-1,-1.0313337E0,-2.3324594E-1,8.2599086E-1,-1.3154504E0,1.0491483E0,-8.5277957E-1,2.2521836E-1,7.817804E-1,-9.4783664E-1,-8.4629124E-1,1.0674284E0,-4.314898E-2,-1.0575542E0,7.1524376E-1,-1.2378334E0,-6.500615E-1,8.983111E-1,1.0500842E0,-8.9019626E-1,-9.7545683E-1,8.2389903E-1,-4.016695E-1,3.8819626E-1,-1.0725905E0,1.4934103E0,-1.0294316E0,4.779361E-1,-1.1044536E0,1.2793816E0,-1.0760999E0,1.4566171E0,-1.0601177E0,1.5427037E0,-1.080287E0,-3.667657E-1,-1.4295027E0,9.8692554E-1,-1.4994489E0,9.1038203E-1,-1.9041874E0,9.297761E-1,9.249824E-1,-1.9975915E0,4.282394E-1,1.0518041E0,3.9163163E-1,-1.0820204E0,-1.078425E0,1.1415612E0,-1.0061864E0,1.2642121E-1,-1.244919E-1,5.8819526E-1,1.6076485E0,-8.5575795E-1,-1.0647401E0,1.1772859E0,9.374704E-1,-1.149564E0,-9.2913175E-1,1.5931424E0,-1.146262E0,-1.0732217E0,9.583197E-1,-1.1599573E0,1.0506457E0,-9.3168867E-1,-1.8613827E0,-1.1976665E0,-2.397338E0,-1.0029458E0,9.5584315E-1,-1.3527267E0,-1.5660924E0,9.8145187E-1,6.273449E-1,1.0524923E0],"categories":[],"categories_nodes":[],"categories_segments":[],"categories_sizes":[],"default_left":[1,1,1,1,1,1,1,1,1,1,1,1,1,0,1,1,1,1,1,1,1,1,1,1,1,1,1,1,0,1,1,1,1,0,1,1,1,0,0,0,1,0,0,1,1,0,1,1,0,1,0,1,0,1,1,0,0,0,0,0,0,0,0,0,0,0,0,0,0,0,0,0,0,0,0,0,0,0,0,0,0,0,0,0,0,0,0],"id":7,"left_children":[1,3,5,7,9,11,13,15,17,19,21,23,25,-1,27,29,31,33,35,37,39,41,43,45,47,49,51,53,-1,55,57,59,61,-1,63,65,67,-1,-1,-1,69,-1,-1,71,73,-1,75,77,-1,79,-1,81,-1,83,85,-1,-1,-1,-1,-1,-1,-1,-1,-1,-1,-1,-1,-1,-1,-1,-1,-1,-1,-1,-1,-1,-1,-1,-1,-1,-1,-1,-1,-1,-1,-1,-1],"loss_changes":[5.659672E3,1.4148582E3,1.02156494E2,1.264872E3,1.9205151E2,9.969289E1,1.0312744E1,8.07841E2,3.106532E2,2.562068E2,7.31521E1,1.1713112E2,3.5876663E1,0E0,7.5949707E0,1.6649829E2,5.184984E2,1.4715707E2,2.1536084E2,1.1554961E2,8.952904E1,1.2108212E2,4.2818604E1,3.8344772E1,3.4868362E1,3.3515747E1,2.6223434E1,3.4729004E0,0E0,1.0984387E2,3.474746E1,3.3447192E2,4.1299774E2,0E0,2.2879486E1,1.3739673E2,7.636109E1,0E0,0E0,0E0,3.0684525E1,0E0,0E0,1.1474609E-2,9.4854385E1,0E0,7.9291E0,3.6163864E0,0E0,1.7111778E0,0E0,2.3322205E1,0E0,1.4561233E1,4.0820312E-1,0E0,0E0,0E0,0E0,0E0,0E0,0E0,0E0,0E0,0E0,0E0,0E0,0E0,0E0,0E0,0E0,0E0,0E0,0E0,0E0,0E0,0E0,0E0,0E0,0E0,0E0,0E0,0E0,0E0,0E0,0E0,0E0],"parents":[2147483647,0,0,1,1,2,2,3,3,4,4,5,5,6,6,7,7,8,8,9,9,10,10,11,11,12,12,14,14,15,15,16,16,17,17,18,18,19,19,20,20,21,21,22,22,23,23,24,24,25,25,26,26,27,27,29,29,30,30,31,31,32,32,34,34,35,35,36,36,40,40,43,43,44,44,46,46,47,47,49,49,51,51,53,53,54,54],"right_children":[2,4,6,8,10,12,14,16,18,20,22,24,26,-1,28,30,32,34,36,38,40,42,44,46,48,50,52,54,-1,56,58,60,62,-1,64,66,68,-1,-1,-1,70,-1,-1,72,74,-1,76,78,-1,80,-1,82,-1,84,86,-1,-1,-1,-1,-1,-1,-1,-1,-1,-1,-1,-1,-1,-1,-1,-1,-1,-1,-1,-1,-1,-1,-1,-1,-1,-1,-1,-1,-1,-1,-1,-1],"split_conditions":[2.8850002E0,-4.35E1,3.3249998E0,8.775E1,-3.15E1,8.6E-1,-1.55E1,-7.8499997E-1,-3.8449998E0,1.335E0,-2.255E0,9.455E1,-1.15E-1,-3.9463514E-1,1.025E1,2.7350001E0,2.45E-1,2.4250002E0,1.1225E1,3.2849998E0,-1.809E2,4.205E0,2.2649999E0,6E-1,5.2349997E0,3.729E1,3.55E1,-9.4000006E-1,-2.6705888E-1,5.1785E2,-2.2849998E1,3.75E-1,3.25E-1,-3.2177716E-1,4.8155E1,3.69E0,-2.9500002E-1,-3.3133608E-1,3.838145E-1,-3.2282996E-1,5.5E-1,-3.1803533E-1,4.6281114E-1,-8.15E0,2.135E0,-4.2885083E-1,-3.685E1,-1.215E1,2.7311462E-1,-4.75E0,2.7893284E-1,-1.375E1,-5.992775E-1,6.05E0,1.35E1,1.17489494E-1,-3.2460612E-1,-3.2352751E-1,3.4246835E-1,-3.0185592E-1,3.7926365E-2,-3.734757E-2,1.7645858E-1,4.8229456E-1,-2.567274E-1,-3.1942204E-1,3.5318577E-1,2.8124112E-1,-3.4486923E-1,-2.7873954E-1,4.7794273E-1,-3.4387863E-1,-3.2196653E-1,2.8749594E-1,-3.479872E-1,3.151937E-1,-2.7950662E-1,-5.584148E-1,-3.5929996E-1,-7.192014E-1,-3.0088374E-1,2.8675297E-1,-4.0581802E-1,-4.6982774E-1,2.9443556E-1,1.8820348E-1,3.1574768E-1],"split_indices":[52,44,57,54,64,62,43,62,46,31,16,70,12,0,4,27,52,32,47,12,30,32,22,17,2,33,63,67,0,55,29,17,72,0,0,17,26,0,0,0,46,0,0,34,23,0,39,34,0,34,0,4,0,2,58,0,0,0,0,0,0,0,0,0,0,0,0,0,0,0,0,0,0,0,0,0,0,0,0,0,0,0,0,0,0,0,0],"split_type":[0,0,0,0,0,0,0,0,0,0,0,0,0,0,0,0,0,0,0,0,0,0,0,0,0,0,0,0,0,0,0,0,0,0,0,0,0,0,0,0,0,0,0,0,0,0,0,0,0,0,0,0,0,0,0,0,0,0,0,0,0,0,0,0,0,0,0,0,0,0,0,0,0,0,0,0,0,0,0,0,0,0,0,0,0,0,0],"sum_hessian":[1.508807E4,1.0967623E4,4.1204478E3,7.8322124E3,3.1354102E3,4.50615E2,3.6698328E3,5.8769424E3,1.95527E3,3.1142624E2,2.823984E3,1.2099914E2,3.2961584E2,1.0419751E0,3.6687908E3,8.0455347E2,5.072389E3,1.09300415E2,1.8459696E3,2.0698671E2,1.04439545E2,7.306339E1,2.7509204E3,6.238543E1,5.861371E1,1.5022326E1,3.1459354E2,3.6674795E3,1.3111979E0,7.5008997E2,5.446349E1,1.0463153E3,4.0260737E3,3.0171654E1,7.912876E1,1.7463088E3,9.96608E1,1.8499905E2,2.1987658E1,1.5777438E1,8.86621E1,4.471821E1,2.8345184E1,2.6627305E3,8.818993E1,6.534919E0,5.585051E1,5.2519714E1,6.093993E0,8.259981E0,6.762345E0,3.1239694E2,2.196595E0,1.08048725E1,3.6566748E3,5.404748E1,6.960425E2,7.4505963E0,4.7012894E1,4.874339E2,5.588815E2,1.1299294E3,2.8961443E3,7.5760254E1,3.3685079E0,1.7193164E3,2.6992353E1,7.8047585E1,2.1613216E1,4.4848466E0,8.417726E1,2.4197156E2,2.420759E3,3.294488E1,5.5245052E1,5.4493103E1,1.3574064E0,2.1530174E1,3.0989542E1,4.2657604E0,3.9942205E0,3.0879343E2,3.6034946E0,1.9487433E0,8.856129E0,7.396951E0,3.6492778E3],"tree_param":{"num_deleted":"0","num_feature":"74","num_nodes":"87","size_leaf_vector":"0"}},{"base_weights":[-9.204296E-3,-3.3237898E-1,9.72273E-1,-1.4634013E-1,-9.730302E-1,5.0279284E-1,1.0291625E0,3.4436915E-2,-8.0576706E-1,-1.0260389E0,-2.3833397E-1,-1.9066358E-1,7.6505333E-1,-1.2022653E0,1.0304568E0,-7.004363E-1,1.8397208E-1,6.7281157E-1,-8.967338E-1,-1.4244234E-2,-1.0561061E0,4.144068E-1,-1.0609524E0,6.874092E-1,-1.1320691E0,-1.6274021E0,8.030213E-1,1.0315806E0,-8.10952E-1,-1.0800704E0,2.1307486E-1,-1.5578385E-2,5.957859E-1,-1.0349811E0,1.2578809E0,-9.7699404E-1,3.8862312E-1,-1.023719E0,1.27128E0,8.398713E-1,-1.1246068E0,-1.3224683E0,9.439805E-1,-1.3875341E0,8.641409E-1,-1.9680241E0,-6.768173E-1,8.364753E-1,-1.6789219E0,4.1753793E-1,1.033315E0,4.5925394E-1,-1.1834059E0,-1.2753195E0,6.8011814E-1,1.8925947E-1,-7.808204E-1,1.5957683E-1,8.7794244E-1,-8.2268447E-1,1.3634369E0,-1.0116584E0,9.5447063E-1,8.447985E-1,-1.1117033E0,-5.605313E-1,1.3675953E0,1.0328391E0,-9.3583894E-1,-8.664222E-1,1.0188315E0,-1.6211606E0,-1.145363E0,-1.5735617E0,8.6048865E-1,-1.333129E0,9.333043E-1,3.546669E-1,1.0344812E0],"categories":[],"categories_nodes":[],"categories_segments":[],"categories_sizes":[],"default_left":[1,1,1,1,1,1,1,1,1,1,1,1,1,0,1,1,1,1,1,1,0,1,0,1,1,1,1,1,0,1,1,1,1,0,1,1,1,0,1,1,0,0,1,1,0,0,0,1,0,1,1,0,0,0,0,0,0,0,0,0,0,0,0,0,0,0,0,0,0,0,0,0,0,0,0,0,0,0,0],"id":8,"left_children":[1,3,5,7,9,11,13,15,17,19,21,23,25,-1,27,29,31,33,35,37,-1,39,-1,41,43,45,47,49,-1,51,53,55,57,-1,59,61,63,-1,65,67,-1,-1,69,71,-1,-1,-1,73,-1,75,77,-1,-1,-1,-1,-1,-1,-1,-1,-1,-1,-1,-1,-1,-1,-1,-1,-1,-1,-1,-1,-1,-1,-1,-1,-1,-1,-1,-1],"loss_changes":[3.968575E3,1.1216871E3,8.2259766E1,8.6970996E2,8.224158E1,6.1420624E1,9.218994E0,6.2943365E2,2.117323E2,6.0073242E1,7.767211E1,7.7865776E1,2.3531494E1,0E0,6.5532227E0,3.3609772E2,3.9111203E2,9.2774445E1,1.5297498E2,7.658798E1,0E0,5.3928425E1,0E0,2.645119E1,2.4342518E1,1.25665665E-2,2.1457458E1,2.508789E0,0E0,1.0939642E2,1.9909125E2,5.0281326E2,1.9105719E2,0E0,1.61959E1,9.419885E1,6.09273E1,0E0,5.347538E0,2.288427E1,0E0,0E0,6.8349113E0,4.412384E-1,0E0,0E0,0E0,1.5183884E1,0E0,9.780991E0,1.8117676E0,0E0,0E0,0E0,0E0,0E0,0E0,0E0,0E0,0E0,0E0,0E0,0E0,0E0,0E0,0E0,0E0,0E0,0E0,0E0,0E0,0E0,0E0,0E0,0E0,0E0,0E0,0E0,0E0],"parents":[2147483647,0,0,1,1,2,2,3,3,4,4,5,5,6,6,7,7,8,8,9,9,10,10,11,11,12,12,14,14,15,15,16,16,17,17,18,18,19,19,21,21,23,23,24,24,25,25,26,26,27,27,29,29,30,30,31,31,32,32,34,34,35,35,36,36,38,38,39,39,42,42,43,43,47,47,49,49,50,50],"right_children":[2,4,6,8,10,12,14,16,18,20,22,24,26,-1,28,30,32,34,36,38,-1,40,-1,42,44,46,48,50,-1,52,54,56,58,-1,60,62,64,-1,66,68,-1,-1,70,72,-1,-1,-1,74,-1,76,78,-1,-1,-1,-1,-1,-1,-1,-1,-1,-1,-1,-1,-1,-1,-1,-1,-1,-1,-1,-1,-1,-1,-1,-1,-1,-1,-1,-1],"split_conditions":[2.935E0,-4.05E1,3.32E0,8.875E1,1.775E0,8.6E-1,-1.25E1,7.5E-2,-3.8449998E0,-2.255E0,-9.25E0,9.455E1,1.14999995E-1,-3.606796E-1,1.025E1,-2.75E1,4.275E0,2.4250002E0,1.1225E1,4.2E0,-3.1683183E-1,-1.5E0,-3.1828573E-1,5.45E-1,5.2349997E0,-5.75E0,3.55E1,-9.4000006E-1,-2.4328561E-1,-1.445E2,2.9500002E-1,4.4934998E2,2.185E0,-3.1049436E-1,7.775E0,3.69E0,3.42315E3,-3.071157E-1,8.45E-1,7E0,-3.3738208E-1,-3.967405E-1,2.95E1,-1.215E1,2.592423E-1,-5.9040725E-1,-2.030452E-1,-9.5E0,-5.036766E-1,6.05E0,-1.3E1,1.3777618E-1,-3.5502177E-1,-3.8259587E-1,2.0403545E-1,5.6777842E-2,-2.3424613E-1,4.7873054E-2,2.6338273E-1,-2.4680535E-1,4.090311E-1,-3.0349755E-1,2.863412E-1,2.5343958E-1,-3.33511E-1,-1.681594E-1,4.1027862E-1,3.0985174E-1,-2.807517E-1,-2.5992668E-1,3.0564946E-1,-4.863482E-1,-3.4360892E-1,-4.7206852E-1,2.581466E-1,-3.9993873E-1,2.799913E-1,1.0640007E-1,3.1034437E-1],"split_indices":[52,44,57,54,12,62,48,67,46,16,4,70,72,0,4,69,42,32,47,32,0,63,0,17,2,34,63,67,0,44,66,50,67,0,47,17,55,0,2,3,0,0,64,34,0,0,0,68,0,2,43,0,0,0,0,0,0,0,0,0,0,0,0,0,0,0,0,0,0,0,0,0,0,0,0,0,0,0,0],"split_type":[0,0,0,0,0,0,0,0,0,0,0,0,0,0,0,0,0,0,0,0,0,0,0,0,0,0,0,0,0,0,0,0,0,0,0,0,0,0,0,0,0,0,0,0,0,0,0,0,0,0,0,0,0,0,0,0,0,0,0,0,0,0,0,0,0,0,0,0,0,0,0,0,0,0,0,0,0,0,0],"sum_hessian":[1.2509701E4,9.411427E3,3.0982744E3,7.294426E3,2.1170015E3,3.359221E2,2.7623523E3,5.7257114E3,1.568714E3,1.9741677E3,1.428337E2,9.225607E1,2.4366603E2,1.0632529E0,2.761289E3,9.6747644E2,4.7582354E3,9.0547874E1,1.4781661E3,5.7015186E1,1.9171526E3,7.99167E1,6.2916996E1,4.7873264E1,4.4382805E1,3.152567E0,2.4051346E2,2.7600442E3,1.244722E0,6.8332153E2,2.841549E2,3.2057864E3,1.5524487E3,2.2908869E1,6.7639E1,1.391517E3,8.664917E1,3.205065E1,2.4964535E1,6.2964325E1,1.6952375E1,4.949155E0,4.292411E1,3.9617653E1,4.765155E0,1.5329403E0,1.6196268E0,2.3796887E2,2.544595E0,8.454473E0,2.7515898E3,4.2769356E1,6.405522E2,6.745516E1,2.1669975E2,2.5294602E3,6.763262E2,6.10379E2,9.4206976E2,2.9378853E0,6.470112E1,1.3674513E3,2.4065723E1,6.678121E1,1.9867954E1,1.0062875E0,2.3958248E1,5.7169968E1,5.794355E0,1.2843577E0,4.1639755E1,1.7266293E1,2.2351358E1,1.711089E0,2.3625778E2,1.5633241E0,6.891148E0,5.243821E0,2.746346E3],"tree_param":{"num_deleted":"0","num_feature":"74","num_nodes":"79","size_leaf_vector":"0"}},{"base_weights":[-1.0777505E-2,-2.8625345E-1,9.479335E-1,-1.235805E-1,-9.558895E-1,1.0175143E0,4.7760567E-1,-7.3822176E-1,5.7289604E-2,-1.0105667E0,-2.3288782E-1,1.0195785E0,-1.2379473E0,-1.5457718E0,5.810033E-1,-1.043365E0,1.9304354E-1,-3.1128415E-1,3.2437947E-1,-2.2637852E-2,-1.0412947E0,3.626404E-1,-1.0362632E0,-7.8929603E-1,1.0209985E0,-1.9042891E0,-1.0242101E0,-5.5380195E-1,6.9633925E-1,-1.0786183E0,6.389154E-1,4.4190824E-1,-1.1093076E0,-5.834964E-1,4.323483E-1,-1.4768462E-1,5.475433E-1,-9.9996966E-1,1.1249299E0,7.429595E-1,-1.0612121E0,2.731468E-1,1.0226388E0,9.445673E-1,-1.6128291E0,-1.1771053E0,7.353385E-1,3.5119677E-1,-1.1168779E0,1.1736989E0,-1.1851511E0,-1.2582285E0,6.00452E-1,2.7180403E-1,-7.727678E-1,6.06943E-1,-1.0321122E0,-4.968341E-1,8.6227876E-1,6.950529E-1,-1.6484807E-1,-9.733821E-1,1.000652E0,3.995613E-1,1.023744E0,-1.9254576E0,-1.0928084E0,-1.2854645E0,7.622745E-1],"categories":[],"categories_nodes":[],"categories_segments":[],"categories_sizes":[],"default_left":[1,1,1,1,1,1,1,1,1,1,1,1,0,1,1,1,1,1,1,1,0,1,0,0,1,0,0,1,1,1,1,1,0,1,1,1,1,0,0,1,0,0,1,0,1,0,1,0,0,0,0,0,0,0,0,0,0,0,0,0,0,0,0,0,0,0,0,0,0],"id":9,"left_children":[1,3,5,7,9,11,13,15,17,19,21,23,-1,25,27,29,31,33,35,37,-1,39,-1,-1,41,-1,-1,43,45,47,49,51,-1,53,55,57,59,-1,-1,61,-1,-1,63,-1,65,-1,67,-1,-1,-1,-1,-1,-1,-1,-1,-1,-1,-1,-1,-1,-1,-1,-1,-1,-1,-1,-1,-1,-1],"loss_changes":[2.7757134E3,8.892112E2,7.628491E1,7.3038556E2,6.2838013E1,1.0771484E1,6.4542816E1,4.2468152E2,4.9987662E2,4.499646E1,5.46668E1,6.0493164E0,0E0,8.662262E-1,3.836129E1,6.742346E1,1.20248634E2,4.3216226E2,3.1024194E2,5.2444973E1,0E0,3.647951E1,0E0,0E0,2.2236328E0,0E0,0E0,4.4884018E1,2.0141228E1,6.0705322E1,2.453378E1,8.4567E1,0E0,2.531283E2,1.4696286E2,3.339607E2,2.1021234E2,0E0,0E0,2.4240068E1,0E0,0E0,9.926758E-1,0E0,5.586777E-1,0E0,1.5081009E1,0E0,0E0,0E0,0E0,0E0,0E0,0E0,0E0,0E0,0E0,0E0,0E0,0E0,0E0,0E0,0E0,0E0,0E0,0E0,0E0,0E0,0E0],"parents":[2147483647,0,0,1,1,2,2,3,3,4,4,5,5,6,6,7,7,8,8,9,9,10,10,11,11,13,13,14,14,15,15,16,16,17,17,18,18,19,19,21,21,24,24,27,27,28,28,29,29,30,30,31,31,33,33,34,34,35,35,36,36,39,39,42,42,44,44,46,46],"right_children":[2,4,6,8,10,12,14,16,18,20,22,24,-1,26,28,30,32,34,36,38,-1,40,-1,-1,42,-1,-1,44,46,48,50,52,-1,54,56,58,60,-1,-1,62,-1,-1,64,-1,66,-1,68,-1,-1,-1,-1,-1,-1,-1,-1,-1,-1,-1,-1,-1,-1,-1,-1,-1,-1,-1,-1,-1,-1],"split_conditions":[2.935E0,-4.05E1,-2.375E1,-4.255E1,1.775E0,-1.18E1,1.55E-1,8.255E0,2.9500002E-1,-2.255E0,-9.25E0,-8.7E-1,-3.713842E-1,-4.55E0,-1.04E0,3.705E0,-4.25E1,1.465E0,-7.5E-2,4.2E0,-3.1238842E-1,6.75E0,-3.10879E-1,-2.3678882E-1,-1.3E1,-5.7128674E-1,-3.0726305E-1,-3.455E0,3E-2,-7.475E1,1.0799999E0,5.855E0,-3.327923E-1,-3.025E1,-2.5E-1,6.9849997E0,2.5E0,-2.9999092E-1,3.37479E-1,2.5E-1,-3.1836364E-1,8.194405E-2,-2.625E1,2.833702E-1,1.3233E3,-3.531316E-1,-5.795E1,1.0535903E-1,-3.350634E-1,3.5210967E-1,-3.5554534E-1,-3.774686E-1,1.8013561E-1,8.154121E-2,-2.3183034E-1,1.820829E-1,-3.0963367E-1,-1.4905024E-1,2.5868365E-1,2.0851588E-1,-4.9454425E-2,-2.9201466E-1,3.001956E-1,1.1986839E-1,3.071232E-1,-5.776373E-1,-3.2784253E-1,-3.8563937E-1,2.2868235E-1],"split_indices":[52,44,54,19,12,29,72,47,57,16,4,27,0,34,38,17,64,22,27,32,0,3,0,0,43,0,0,36,73,59,18,42,0,34,4,47,64,0,0,8,0,0,8,0,65,0,19,0,0,0,0,0,0,0,0,0,0,0,0,0,0,0,0,0,0,0,0,0,0],"split_type":[0,0,0,0,0,0,0,0,0,0,0,0,0,0,0,0,0,0,0,0,0,0,0,0,0,0,0,0,0,0,0,0,0,0,0,0,0,0,0,0,0,0,0,0,0,0,0,0,0,0,0,0,0,0,0,0,0,0,0,0,0,0,0,0,0,0,0,0,0],"sum_hessian":[1.0507985E4,8.1631016E3,2.3448835E3,6.5685947E3,1.5945071E3,2.0416726E3,3.0321097E2,1.4927568E3,5.075838E3,1.4820303E3,1.1247678E2,2.0403534E3,1.3192508E0,1.4063038E1,2.8914792E2,1.1242566E3,3.6850018E2,2.13267E3,2.9431677E3,4.4757988E1,1.4372723E3,6.490927E1,4.7567513E1,1.1652904E0,2.0391881E3,6.763047E0,7.2999907E0,2.6325571E1,2.6282236E2,1.1015321E3,2.2724478E1,3.0993564E2,5.856454E1,1.5613436E3,5.713263E2,9.4484705E2,1.9983208E3,2.4241343E1,2.0516644E1,5.160381E1,1.3305466E1,4.829562E0,2.0343585E3,1.0946271E1,1.5379299E1,4.7644696E0,2.580579E2,2.8493954E1,1.0730382E3,1.7848244E1,4.8762345E0,2.5845587E1,2.8409006E2,2.8282892E2,1.2785148E3,5.1099088E2,6.033539E1,7.02498E2,2.4234904E2,1.6555438E3,3.4277692E2,6.373864E0,4.5229942E1,4.244017E0,2.0301145E3,7.917041E0,7.462259E0,2.7799027E0,2.5527797E2],"tree_param":{"num_deleted":"0","num_feature":"74","num_nodes":"69","size_leaf_vector":"0"}},{"base_weights":[-1.1426964E-2,-2.4709147E-1,9.139637E-1,-9.065937E-2,-8.76978E-1,4.1442254E-1,1.0072293E0,-6.662416E-1,6.287136E-2,-4.033114E-2,-9.8805064E-1,-8.97886E-2,7.0774627E-1,-1.0403353E0,1.0112771E0,-9.93143E-1,1.2692364E-1,-7.40093E-1,1.6934393E-1,-9.2938167E-1,7.6827615E-1,-8.957013E-2,-1.0158925E0,-1.4448177E0,2.7848616E-1,-1.757718E0,7.4661916E-1,1.0125885E0,1.7480665E-1,-5.138108E-1,-1.1125193E0,-2.9838267E-1,9.688889E-1,-8.997787E-1,6.9037765E-1,-1.1579521E-1,4.0710783E-1,2.7612793E-1,-1.051628E0,-9.9080616E-1,1.1666442E0,-1.0007522E0,1.034022E0,-1.0392126E0,-3.793048E-1,-1.7145312E0,-1.09626E0,-1.4300458E0,5.251657E-1,-1.410753E0,7.7922785E-1,5.7015944E-1,1.0152814E0,5.646767E-1,-1.209037E0,3.522639E-1,-1.1372023E0,-7.4498594E-1,6.8911624E-1,-1.3317202E0,1.0487319E0,3.6394536E-1,-1.0694308E0,-1.0460773E0,1.02245E0,-9.808888E-1,3.0696237E-2,-7.919883E-1,5.0377256E-1,-8.2145286E-1,8.585939E-1,1.2800977E0,-8.054891E-1,7.709472E-1,-1.0778437E0,-1.8318577E0,-9.9981827E-1,-1.259251E0,6.7806834E-1,-1.259742E0,8.1185144E-1,9.2669904E-1,-1.2418495E0,4.156502E-1,1.0167032E0],"categories":[],"categories_nodes":[],"categories_segments":[],"categories_sizes":[],"default_left":[1,1,1,1,1,1,1,1,1,1,1,1,1,0,1,1,1,1,1,1,1,1,1,1,1,0,1,1,0,1,1,1,1,1,1,1,1,1,0,0,1,0,0,0,1,0,0,1,1,0,1,1,1,0,0,0,0,0,0,0,0,0,0,0,0,0,0,0,0,0,0,0,0,0,0,0,0,0,0,0,0,0,0,0,0],"id":10,"left_children":[1,3,5,7,9,11,13,15,17,19,21,23,25,-1,27,29,31,33,35,37,39,41,43,45,47,-1,49,51,-1,53,55,57,59,61,63,65,67,69,-1,-1,71,-1,-1,-1,73,-1,-1,75,77,-1,79,81,83,-1,-1,-1,-1,-1,-1,-1,-1,-1,-1,-1,-1,-1,-1,-1,-1,-1,-1,-1,-1,-1,-1,-1,-1,-1,-1,-1,-1,-1,-1,-1,-1],"loss_changes":[1.9390464E3,6.9819635E2,8.3664795E1,5.0179565E2,1.3096265E2,4.2308067E1,1.3650757E1,3.1015356E2,3.8341144E2,1.2023766E2,3.1039307E1,5.326904E1,1.8630028E1,0E0,1.4875488E0,4.7884888E1,1.2557168E2,1.2055823E2,2.6846088E2,1.202742E1,6.255454E1,4.045138E1,1.7523438E1,2.6400375E-1,3.6212234E1,0E0,1.3663025E1,1.2260742E0,0E0,1.2867822E2,2.4882263E1,1.0336329E2,2.3007736E1,1.0174722E2,3.179985E1,2.282691E2,2.5066635E2,5.8995247E0,0E0,0E0,1.7117943E1,0E0,0E0,0E0,3.6366726E1,0E0,0E0,4.9999237E-2,2.111374E1,0E0,1.2768303E1,8.545845E0,8.602295E-1,0E0,0E0,0E0,0E0,0E0,0E0,0E0,0E0,0E0,0E0,0E0,0E0,0E0,0E0,0E0,0E0,0E0,0E0,0E0,0E0,0E0,0E0,0E0,0E0,0E0,0E0,0E0,0E0,0E0,0E0,0E0,0E0],"parents":[2147483647,0,0,1,1,2,2,3,3,4,4,5,5,6,6,7,7,8,8,9,9,10,10,11,11,12,12,14,14,15,15,16,16,17,17,18,18,19,19,20,20,21,21,22,22,23,23,24,24,26,26,27,27,29,29,30,30,31,31,32,32,33,33,34,34,35,35,36,36,37,37,40,40,44,44,47,47,48,48,50,50,51,51,52,52],"right_children":[2,4,6,8,10,12,14,16,18,20,22,24,26,-1,28,30,32,34,36,38,40,42,44,46,48,-1,50,52,-1,54,56,58,60,62,64,66,68,70,-1,-1,72,-1,-1,-1,74,-1,-1,76,78,-1,80,82,84,-1,-1,-1,-1,-1,-1,-1,-1,-1,-1,-1,-1,-1,-1,-1,-1,-1,-1,-1,-1,-1,-1,-1,-1,-1,-1,-1,-1,-1,-1,-1,-1],"split_conditions":[2.8850002E0,-4.35E1,4.185E0,-4.255E1,-3.15E1,1.255E0,1.815E0,8.045E0,-7.8499997E-1,7.95E-1,-2.255E0,3.65E-1,-2.25E-1,-3.121006E-1,6.4435E1,6.1375E2,1.925E1,2.025E0,2.55E-1,-2.0549998E0,7.25E-1,-2.2649999E0,2.2649999E0,-9.4E0,2.55E-1,-5.2731544E-1,-1.165E0,1.325E1,5.2442E-2,-6.095E1,6.6775E2,3.775E0,-2.45E-1,8.75E0,8.25E-1,-4.5E0,-8.15E-1,1.915E0,-3.154884E-1,-2.9724187E-1,9.6515E2,-3.0022568E-1,3.102066E-1,-3.117638E-1,2.135E0,-5.1435935E-1,-3.28878E-1,-5.475E1,-4.4999998E-2,-4.232259E-1,-4.4999998E-2,1.01885E3,-1.3E1,1.6940302E-1,-3.627111E-1,1.0567918E-1,-3.4116068E-1,-2.234958E-1,2.0673488E-1,-3.9951608E-1,3.146196E-1,1.0918362E-1,-3.2082927E-1,-3.138232E-1,3.06735E-1,-2.9426664E-1,9.208872E-3,-2.375965E-1,1.5113178E-1,-2.4643587E-1,2.5757816E-1,3.8402933E-1,-2.4164675E-1,2.3128417E-1,-3.233531E-1,-5.495573E-1,-2.999455E-1,-3.777753E-1,2.034205E-1,-3.7792262E-1,2.4355544E-1,2.780097E-1,-3.7255487E-1,1.2469506E-1,3.0501097E-1],"split_indices":[52,44,52,19,64,62,57,47,62,11,16,38,7,0,1,10,58,17,36,41,46,16,22,34,72,0,17,58,0,39,55,67,17,54,26,68,27,12,0,0,55,0,0,0,23,0,0,59,27,0,57,5,43,0,0,0,0,0,0,0,0,0,0,0,0,0,0,0,0,0,0,0,0,0,0,0,0,0,0,0,0,0,0,0,0],"split_type":[0,0,0,0,0,0,0,0,0,0,0,0,0,0,0,0,0,0,0,0,0,0,0,0,0,0,0,0,0,0,0,0,0,0,0,0,0,0,0,0,0,0,0,0,0,0,0,0,0,0,0,0,0,0,0,0,0,0,0,0,0,0,0,0,0,0,0,0,0,0,0,0,0,0,0,0,0,0,0,0,0,0,0,0,0],"sum_hessian":[8.889339E3,7.0856147E3,1.8037244E3,5.6769023E3,1.4087126E3,2.8463455E2,1.5190898E3,1.1946931E3,4.482209E3,1.6526073E2,1.2434519E3,1.0494037E2,1.7969418E2,2.4919991E0,1.5165978E3,8.4583276E2,3.4886038E2,5.240592E2,3.95815E3,7.86438E1,8.661693E1,3.750039E1,1.2059515E3,2.180135E1,8.313902E1,2.1029072E0,1.7759126E2,1.5140137E3,2.5841527E0,1.6970784E2,6.7612494E2,2.3220903E2,1.1665135E2,4.7176614E2,5.2293022E1,1.8000032E3,2.1581467E3,7.124827E0,7.151897E1,1.57190075E1,7.089793E1,2.0767899E1,1.6732492E1,1.1627251E3,4.3226456E1,1.0081423E1,1.1719926E1,9.884009E0,7.325501E1,2.015026E0,1.7557625E2,1.0446467E1,1.5035673E3,6.6592415E1,1.0311542E2,1.0984604E1,6.651403E2,1.6006438E2,7.214465E1,3.38672E0,1.13264626E2,5.5701954E1,4.160642E2,8.049719E0,4.4243305E1,2.5984042E2,1.5401627E3,1.6046272E2,1.9976841E3,2.327901E0,4.796926E0,6.737298E1,3.524949E0,1.6293324E1,2.693313E1,3.4262125E0,6.457797E0,5.210569E0,6.804444E1,2.172632E0,1.7340361E2,9.137173E0,1.3092948E0,4.2508297E0,1.4993164E3],"tree_param":{"num_deleted":"0","num_feature":"74","num_nodes":"85","size_leaf_vector":"0"}},{"base_weights":[-1.4167499E-2,-1.9883828E-1,9.6754616E-1,-7.851727E-2,-9.242955E-1,2.5878668E-2,9.892635E-1,-7.8137183E-1,1.8859515E-2,-9.7950685E-1,-2.3857321E-1,-1.643279E0,9.1343725E-1,7.1348673E-1,1.0084833E0,-9.218732E-1,4.0494967E-1,-2.9065475E-1,2.0381111E-1,-3.340377E-2,-1.0119464E0,7.254107E-1,-6.554745E-1,-1.0543329E0,-2.1151376E0,7.858829E-1,-1.4303467E0,1.0103049E0,-1.6115844E-2,1.1877403E-1,-1.0447214E0,-7.6809347E-1,8.293372E-1,-4.967056E-1,6.3255E-1,-2.4090474E-2,4.994865E-1,-9.6552956E-1,9.5971817E-1,5.1976043E-1,-1.0262374E0,-7.727014E-1,9.8492146E-1,3.3031234E-1,-1.0406564E0,-9.0151864E-1,-2.584063E0,9.035955E-1,-4.745395E-2,1.0112127E0,3.24525E-1,-1.2553551E0,8.2562625E-1,-1.0325371E0,7.3190325E-1,-9.0598226E-1,9.699997E-1,-7.7699786E-1,1.5944779E-1,3.8678768E0,3.952933E-1,-4.8572186E-1,4.962146E-1,-6.6295606E-1,6.5496594E-1,-6.2924886E-1,8.9467967E-1,-8.6702025E-1,8.254041E-1,-2.2945832E-1,9.614745E-1,8.76086E-1,-2.0319493E0],"categories":[],"categories_nodes":[],"categories_segments":[],"categories_sizes":[],"default_left":[1,1,1,1,1,1,1,1,1,1,1,1,0,1,1,1,1,1,1,1,1,1,1,0,1,1,0,1,0,1,0,1,1,1,1,1,1,0,0,1,0,0,0,1,0,0,0,1,1,0,0,0,0,0,0,0,0,0,0,0,0,0,0,0,0,0,0,0,0,0,0,0,0],"id":11,"left_children":[1,3,5,7,9,11,13,15,17,19,21,23,-1,25,27,29,31,33,35,37,39,41,43,-1,45,47,-1,49,-1,51,-1,53,55,57,59,61,63,-1,-1,65,-1,-1,-1,67,-1,-1,-1,69,71,-1,-1,-1,-1,-1,-1,-1,-1,-1,-1,-1,-1,-1,-1,-1,-1,-1,-1,-1,-1,-1,-1,-1,-1],"loss_changes":[1.3818065E3,5.5988654E2,2.4653198E1,3.7668863E2,3.4314087E1,4.332386E1,5.5323486E0,1.1200375E2,2.7683047E2,2.5875854E1,2.833401E1,5.926857E-1,0E0,1.3582188E1,2.0698242E0,7.6716034E1,3.628852E1,3.444068E2,2.0398541E2,2.779114E1,1.8399353E1,9.081957E0,1.891774E1,0E0,3.1409454E-1,7.7228546E0,0E0,3.5559082E-1,0E0,6.3351383E1,0E0,8.508497E0,1.3832798E1,2.7219955E2,2.5215912E2,4.1105124E2,2.3857687E2,0E0,0E0,4.0990725E0,0E0,0E0,0E0,9.312565E0,0E0,0E0,0E0,4.7227783E0,2.1281439E1,0E0,0E0,0E0,0E0,0E0,0E0,0E0,0E0,0E0,0E0,0E0,0E0,0E0,0E0,0E0,0E0,0E0,0E0,0E0,0E0,0E0,0E0,0E0,0E0],"parents":[2147483647,0,0,1,1,2,2,3,3,4,4,5,5,6,6,7,7,8,8,9,9,10,10,11,11,13,13,14,14,15,15,16,16,17,17,18,18,19,19,20,20,21,21,22,22,24,24,25,25,27,27,29,29,31,31,32,32,33,33,34,34,35,35,36,36,39,39,43,43,47,47,48,48],"right_children":[2,4,6,8,10,12,14,16,18,20,22,24,-1,26,28,30,32,34,36,38,40,42,44,-1,46,48,-1,50,-1,52,-1,54,56,58,60,62,64,-1,-1,66,-1,-1,-1,68,-1,-1,-1,70,72,-1,-1,-1,-1,-1,-1,-1,-1,-1,-1,-1,-1,-1,-1,-1,-1,-1,-1,-1,-1,-1,-1,-1,-1],"split_conditions":[3.6149998E0,-4.05E1,1.325E1,-7.8499997E-1,1.775E0,4.145E0,4.465E0,2.025E0,2.15E-1,-2.255E0,-6.005E0,1.14E0,2.740312E-1,6.83E2,2.4115E1,8.75E0,8.25E-1,5.65E-1,6.85E-1,1.6800001E0,-7.385E0,1.37E0,-4.5E0,-3.1629986E-1,1.6099999E0,6.184E2,-4.2910403E-1,1.9613E3,-4.8347535E-3,1.145E0,-3.1341642E-1,1.0059999E1,1.5E-1,2.1950002E0,1.5E-2,-4.025E1,6.55E-1,-2.8965887E-1,2.8791547E-1,-7.3999996E0,-3.0787122E-1,-2.3181042E-1,2.9547644E-1,-1.54E1,-3.1219694E-1,-2.704556E-1,-7.7521896E-1,-1.75E-1,2.225E1,3.0336383E-1,9.7357504E-2,-3.7660655E-1,2.4768789E-1,-3.0976114E-1,2.1957098E-1,-2.7179468E-1,2.9099992E-1,-2.3309937E-1,4.783434E-2,1.1603631E0,1.1858799E-1,-1.4571656E-1,1.4886439E-1,-1.9888683E-1,1.964898E-1,-1.8877466E-1,2.6840392E-1,-2.601061E-1,2.4762124E-1,-6.88375E-2,2.8844234E-1,2.6282582E-1,-6.095848E-1],"split_indices":[52,44,58,62,12,32,52,17,57,16,33,62,0,15,22,54,26,72,73,66,46,16,48,0,57,60,0,35,0,56,0,27,46,62,73,59,67,0,0,46,0,0,0,40,0,0,0,27,3,0,0,0,0,0,0,0,0,0,0,0,0,0,0,0,0,0,0,0,0,0,0,0,0],"split_type":[0,0,0,0,0,0,0,0,0,0,0,0,0,0,0,0,0,0,0,0,0,0,0,0,0,0,0,0,0,0,0,0,0,0,0,0,0,0,0,0,0,0,0,0,0,0,0,0,0,0,0,0,0,0,0,0,0,0,0,0,0,0,0,0,0,0,0,0,0,0,0,0,0],"sum_hessian":[7.619856E3,6.414094E3,1.2057618E3,5.5025713E3,9.1152295E2,2.7230528E1,1.1785314E3,6.6873E2,4.8338413E3,8.4320355E2,6.8319435E1,9.157437E0,1.807309E1,7.92685E1,1.0992628E3,5.981154E2,7.061457E1,1.8078517E3,3.0259895E3,2.8020287E1,8.151832E2,2.0402819E1,4.791662E1,5.512048E0,3.645389E0,7.729182E1,1.9766842E0,1.0973259E3,1.9369292E0,6.3155796E1,5.3495966E2,1.8544928E1,5.206964E1,1.4783578E3,3.294939E2,1.7093613E3,1.3166282E3,1.4468347E1,1.3551939E1,7.20848E0,8.0797473E2,2.7204702E0,1.7682348E1,1.3502487E1,3.441413E1,1.8304777E0,1.8149114E0,6.7651436E1,9.640383E0,1.0954014E3,1.9245045E0,2.118871E1,4.1967083E1,1.603046E1,2.5144677E0,3.4962618E0,4.857338E1,1.035734E3,4.4262375E2,2.1466444E1,3.0802747E2,9.0578564E2,8.035757E2,1.5494171E2,1.1616865E3,1.6065506E0,5.601929E0,3.7301767E0,9.77231E0,3.1437652E0,6.450767E1,6.9599237E0,2.6804588E0],"tree_param":{"num_deleted":"0","num_feature":"74","num_nodes":"73","size_leaf_vector":"0"}},{"base_weights":[-1.4220548E-2,-2.3573276E-1,6.6648006E-1,-3.567906E-1,4.3964437E-1,-3.9628208E-2,8.059135E-1,-5.4898715E-1,4.017461E-2,-1.0903206E0,5.1957196E-1,-1.3334647E0,3.2197517E-1,5.615491E-1,9.8977226E-1,-8.067944E-1,-1.089527E-1,-6.0944307E-1,2.5492173E-1,-1.3206918E0,7.9784113E-1,3.3206457E-1,8.827751E-1,-1.5575597E0,-1.0382524E0,-7.485831E-1,6.911688E-1,5.745002E-2,7.845364E-1,-1.1336184E0,9.958454E-1,1.3637671E-1,-9.411302E-1,-2.823009E-1,9.4687146E-1,-9.2319435E-1,5.9929204E-1,4.6188518E-1,-7.634958E-1,-1.5237677E0,-1.0334215E0,-1.5829525E0,4.28394E-1,-1.8362377E0,9.110587E-1,-9.660055E-1,-1.6666949E0,8.880295E-1,-1.2101662E0,-1.5974414E0,8.429046E-1,4.6450937E-1,-8.837314E-1,-1.5437204E0,8.426243E-1,-2.1540008E-3,1.0045269E0,8.085756E-1,-9.4700867E-1,-9.8954797E-1,3.74486E-1,-8.2293034E-1,1.6790968E-1,1.4524947E0,-1.1952084E0,-1.1629746E0,1.0780041E0,-1.568528E0,9.3953925E-1,2.3708495E-1,1.2258598E0,-9.506275E-1,7.6128364E-1,-2.264919E0,8.6188006E-1,-6.939941E-1,5.7469136E-1,-1.2707177E-1,9.525883E-1,-2.1100502E0,-1.0519264E0,-1.2465105E0,9.297115E-1,-1.3257878E0,6.5521294E-1,-1.7727698E0,6.1464506E-1,-8.457302E-1,-1.7559245E0,9.007695E-1,-4.3853134E-1,-1.2490529E0,8.1980795E-1,1.0076178E0,-6.3798374E-1],"categories":[],"categories_nodes":[],"categories_segments":[],"categories_sizes":[],"default_left":[1,1,1,1,1,1,1,1,1,1,1,1,1,1,1,1,1,1,1,1,0,1,1,1,0,1,1,1,1,0,1,1,1,1,1,1,1,1,1,0,0,1,1,0,1,0,0,0,0,1,1,1,1,1,1,1,1,0,0,0,0,0,0,0,0,0,0,0,0,0,0,0,0,0,0,0,0,0,0,0,0,0,0,0,0,0,0,0,0,0,0,0,0,0,0],"id":12,"left_children":[1,3,5,7,9,11,13,15,17,19,21,23,25,27,29,31,33,35,37,39,-1,41,43,45,-1,47,49,51,53,-1,55,57,59,61,63,65,67,69,71,-1,-1,73,75,-1,77,-1,-1,-1,-1,79,81,83,85,87,89,91,93,-1,-1,-1,-1,-1,-1,-1,-1,-1,-1,-1,-1,-1,-1,-1,-1,-1,-1,-1,-1,-1,-1,-1,-1,-1,-1,-1,-1,-1,-1,-1,-1,-1,-1,-1,-1,-1,-1],"loss_changes":[1.0068213E3,4.120465E2,1.6144067E2,3.2600262E2,9.426149E1,1.2735839E2,6.095642E1,3.265028E2,1.9472731E2,1.7740559E1,4.9342606E1,2.3161697E0,8.4642624E1,6.629173E1,1.1187134E1,2.3011182E2,1.9513637E2,1.320792E2,2.2144177E2,4.4189072E-1,0E0,8.9645386E1,2.0710495E1,4.4291687E-1,0E0,4.2668335E1,5.6486755E1,7.016384E1,5.6625656E1,0E0,6.7453003E0,1.6620546E2,1.01587524E2,2.2292616E2,1.6461494E2,1.3356493E2,5.463721E1,1.4953583E2,5.138166E1,0E0,0E0,4.081803E1,7.592677E1,0E0,1.07127075E1,0E0,0E0,0E0,0E0,6.377926E-1,2.8286598E1,4.4485863E1,7.477462E1,4.2150497E-2,3.0174774E1,8.925612E0,4.5599976E0,0E0,0E0,0E0,0E0,0E0,0E0,0E0,0E0,0E0,0E0,0E0,0E0,0E0,0E0,0E0,0E0,0E0,0E0,0E0,0E0,0E0,0E0,0E0,0E0,0E0,0E0,0E0,0E0,0E0,0E0,0E0,0E0,0E0,0E0,0E0,0E0,0E0,0E0],"parents":[2147483647,0,0,1,1,2,2,3,3,4,4,5,5,6,6,7,7,8,8,9,9,10,10,11,11,12,12,13,13,14,14,15,15,16,16,17,17,18,18,19,19,21,21,22,22,23,23,25,25,26,26,27,27,28,28,30,30,31,31,32,32,33,33,34,34,35,35,36,36,37,37,38,38,41,41,42,42,44,44,49,49,50,50,51,51,52,52,53,53,54,54,55,55,56,56],"right_children":[2,4,6,8,10,12,14,16,18,20,22,24,26,28,30,32,34,36,38,40,-1,42,44,46,-1,48,50,52,54,-1,56,58,60,62,64,66,68,70,72,-1,-1,74,76,-1,78,-1,-1,-1,-1,80,82,84,86,88,90,92,94,-1,-1,-1,-1,-1,-1,-1,-1,-1,-1,-1,-1,-1,-1,-1,-1,-1,-1,-1,-1,-1,-1,-1,-1,-1,-1,-1,-1,-1,-1,-1,-1,-1,-1,-1,-1,-1,-1],"split_conditions":[1.815E0,2.7350001E0,9.75E-1,1.095E0,1.445E0,2.75E-1,3.125E0,5.3499997E-1,7.45E0,3.455E0,1.945E0,-1.105E1,1.565E0,6.25E-1,-3.05E-1,2.1285E1,1.395E0,1.525E0,-5.05E1,6.225E1,2.3935235E-1,-4.535E1,1.095E0,-3.45E-1,-3.1147572E-1,3.05E-1,3.5E-2,9.225E2,-3.45E-1,-3.400855E-1,-6.5E-2,3.6925E2,9.45E-1,-3.045E1,-2.85E-1,9.075E1,7.9499996E-1,-6.45E1,1.885E0,-4.5713034E-1,-3.1002647E-1,3.35E0,-9.65E1,-5.508713E-1,2.96E0,-2.8980166E-1,-5.0000846E-1,2.6640886E-1,-3.6304986E-1,5.325E1,-3E-1,3.25E-1,6.025E1,5.3499997E-1,3.047E2,5.59E0,4.85E0,2.4257268E-1,-2.8410262E-1,-2.968644E-1,1.1234581E-1,-2.4687912E-1,5.0372906E-2,4.3574843E-1,-3.5856253E-1,-3.488924E-1,3.2340124E-1,-4.7055843E-1,2.8186178E-1,7.112549E-2,3.6775795E-1,-2.8518826E-1,2.283851E-1,-6.794757E-1,2.5856403E-1,-2.0819823E-1,1.7240742E-1,-3.8121533E-2,2.857765E-1,-6.330151E-1,-3.1557792E-1,-3.7395316E-1,2.7891347E-1,-3.9773634E-1,1.9656388E-1,-5.3183097E-1,1.8439353E-1,-2.5371906E-1,-5.267774E-1,2.7023086E-1,-1.315594E-1,-3.7471586E-1,2.459424E-1,3.0228537E-1,-1.9139513E-1],"split_indices":[22,62,52,57,67,66,22,17,15,52,52,34,67,71,27,1,11,56,44,54,0,50,37,62,0,66,27,5,57,0,67,10,73,19,26,3,66,49,26,0,0,46,69,0,62,0,0,0,0,54,38,72,53,67,15,32,34,0,0,0,0,0,0,0,0,0,0,0,0,0,0,0,0,0,0,0,0,0,0,0,0,0,0,0,0,0,0,0,0,0,0,0,0,0,0],"split_type":[0,0,0,0,0,0,0,0,0,0,0,0,0,0,0,0,0,0,0,0,0,0,0,0,0,0,0,0,0,0,0,0,0,0,0,0,0,0,0,0,0,0,0,0,0,0,0,0,0,0,0,0,0,0,0,0,0,0,0,0,0,0,0,0,0,0,0,0,0,0,0,0,0,0,0,0,0,0,0,0,0,0,0,0,0,0,0,0,0,0,0,0,0,0,0],"sum_hessian":[6.675222E3,5.036808E3,1.6384142E3,4.2716147E3,7.65193E2,2.702996E2,1.3681146E3,2.8778691E3,1.3937457E3,3.736252E1,7.278305E2,5.8455387E1,2.118442E2,5.8914435E2,7.789703E2,1.8141576E3,1.0637115E3,3.4581253E2,1.0479332E3,3.3567543E1,3.7949753E0,4.812793E2,2.4655116E2,3.07995E1,2.7655888E1,5.4059402E1,1.5778479E2,1.810681E2,4.0807623E2,1.6920855E0,7.772782E2,2.2617424E2,1.5879834E3,9.143274E2,1.4938422E2,2.7473566E2,7.107687E1,8.7139435E2,1.7653885E2,1.7143932E1,1.6423613E1,2.2310793E1,4.589685E2,1.8801789E0,2.4467099E2,6.331547E0,2.4467953E1,1.1689309E1,4.2370094E1,9.218325E0,1.4856647E2,1.2675378E2,5.4314327E1,9.310744E0,3.987655E2,6.7096334E0,7.7056854E2,1.3973051E2,8.644374E1,1.5318553E3,5.612801E1,4.1506918E2,4.992582E2,1.2111725E2,2.8266972E1,2.4571353E2,2.902213E1,9.152635E0,6.1924236E1,6.742933E2,1.9710109E2,1.5757649E2,1.8962349E1,1.7502264E1,4.8085275E0,5.2493855E1,4.0647467E2,9.332146E0,2.3533884E2,3.273908E0,5.9444165E0,5.393241E0,1.4317322E2,1.1629129E1,1.1512465E2,3.3973534E1,2.0340794E1,3.333038E0,5.9777064E0,3.8173727E2,1.7028227E1,2.4593112E0,4.2503223E0,7.69507E2,1.061553E0],"tree_param":{"num_deleted":"0","num_feature":"74","num_nodes":"95","size_leaf_vector":"0"}},{"base_weights":[-1.3868325E-2,-1.4672227E-1,9.682913E-1,-5.59511E-2,-8.8470095E-1,3.069115E-1,9.946853E-1,-2.0332545E-1,2.8844315E-1,-9.767226E-1,-2.5811467E-1,-1.2794399E0,7.542565E-1,9.977245E-1,-4.4459584E-1,-8.987322E-1,-1.1114617E-1,-1.1209184E0,3.4566137E-1,-1.0158986E0,-4.3405896E-1,-1.0391506E0,6.998868E-1,8.723454E-1,-8.1381273E-1,-9.920792E-3,1.0014615E0,-1.0847718E0,9.1878897E-1,2.7434258E-2,-5.727073E-1,-1.1984035E0,4.1425213E-1,3.915623E-1,-1.1715418E0,4.1113088E-1,-9.880778E-1,-8.1840616E-1,9.4333047E-1,7.4271046E-2,9.361209E-1,1.0039574E0,1.929085E-1,-1.2615354E0,8.370336E-1,-9.0516067E-1,1.1084555E0,-1.8547279E-1,4.125439E-1,1.1269983E0,-8.200479E-1,4.457734E-1,-8.614886E-1,-1.8540233E0,-1.0803955E0,7.61859E-1,-8.075242E-1,-5.528691E-1,1.0242634E0,9.136387E-2,1.0055444E0],"categories":[],"categories_nodes":[],"categories_segments":[],"categories_sizes":[],"default_left":[1,1,1,1,1,1,1,1,1,1,1,0,1,1,0,1,1,1,1,0,1,0,1,1,0,0,1,1,1,1,1,0,0,1,1,1,0,0,1,0,0,1,0,0,0,0,0,0,0,0,0,0,0,0,0,0,0,0,0,0,0],"id":13,"left_children":[1,3,5,7,9,11,13,15,17,19,21,-1,23,25,-1,27,29,31,33,-1,35,-1,37,39,-1,-1,41,43,45,47,49,-1,-1,51,53,55,-1,-1,57,-1,-1,59,-1,-1,-1,-1,-1,-1,-1,-1,-1,-1,-1,-1,-1,-1,-1,-1,-1,-1,-1],"loss_changes":[7.5174774E2,3.398899E2,1.1677734E1,2.294677E2,3.1792328E1,2.0685818E1,3.3291626E0,2.0284612E2,1.0965294E2,9.853424E0,5.499394E1,0E0,4.840351E0,2.4899292E0,0E0,1.262424E2,1.78894E2,6.812729E0,9.119136E1,0E0,1.6490446E1,0E0,1.3032488E1,1.010849E0,0E0,0E0,1.1304932E0,1.153569E2,1.3088915E1,1.7650516E2,2.724272E2,0E0,0E0,8.633838E1,3.9242554E-1,6.730238E0,0E0,0E0,4.084177E0,0E0,0E0,8.551636E-1,0E0,0E0,0E0,0E0,0E0,0E0,0E0,0E0,0E0,0E0,0E0,0E0,0E0,0E0,0E0,0E0,0E0,0E0,0E0],"parents":[2147483647,0,0,1,1,2,2,3,3,4,4,5,5,6,6,7,7,8,8,9,9,10,10,12,12,13,13,15,15,16,16,17,17,18,18,20,20,22,22,23,23,26,26,27,27,28,28,29,29,30,30,33,33,34,34,35,35,38,38,41,41],"right_children":[2,4,6,8,10,12,14,16,18,20,22,-1,24,26,-1,28,30,32,34,-1,36,-1,38,40,-1,-1,42,44,46,48,50,-1,-1,52,54,56,-1,-1,58,-1,-1,60,-1,-1,-1,-1,-1,-1,-1,-1,-1,-1,-1,-1,-1,-1,-1,-1,-1,-1,-1],"split_conditions":[4.955E0,-4.05E1,1.525E0,1.245E0,3.415E0,4.02E0,4.2735E1,-1.0345E2,-3.75E-1,1.775E0,1.225E0,-3.83832E-1,2.825E1,-1.3E1,-1.3337876E-1,6.65E-1,2.5E0,8.925E1,7.8895E2,-3.0476958E-1,-4.5E0,-3.117452E-1,7.95E-1,5.75E-1,-2.4414383E-1,-2.9762376E-3,-6.4E1,1.016E1,6.7799997E0,3.795E0,-1.935E0,-3.5952106E-1,1.2427565E-1,-1.315E1,9.529E2,-2.6999998E-1,-2.9642335E-1,-2.4552186E-1,-1.06E2,2.2281315E-2,2.8083628E-1,7.1500003E-1,5.7872552E-2,-3.7846065E-1,2.511101E-1,-2.715482E-1,3.3253667E-1,-5.5641837E-2,1.23763174E-1,3.380995E-1,-2.4601439E-1,1.3373202E-1,-2.5844657E-1,-5.56207E-1,-3.2411864E-1,2.285577E-1,-2.4225727E-1,-1.6586073E-1,3.0727902E-1,2.7409162E-2,3.0166334E-1],"split_indices":[57,44,2,22,28,38,27,25,67,12,66,0,3,43,0,72,64,53,25,0,48,0,12,71,0,0,59,37,47,38,6,0,0,29,45,17,0,0,20,0,0,37,0,0,0,0,0,0,0,0,0,0,0,0,0,0,0,0,0,0,0],"split_type":[0,0,0,0,0,0,0,0,0,0,0,0,0,0,0,0,0,0,0,0,0,0,0,0,0,0,0,0,0,0,0,0,0,0,0,0,0,0,0,0,0,0,0,0,0,0,0,0,0,0,0,0,0,0,0,0,0,0,0,0,0],"sum_hessian":[5.759147E3,5.0736934E3,6.854535E2,4.518941E3,5.547526E2,2.6789602E1,6.5866394E2,3.1649812E3,1.3539597E3,4.832263E2,7.1526344E1,5.48366E0,2.1305943E1,6.5758215E2,1.081753E0,3.6940616E2,2.795575E3,5.209908E1,1.3018607E3,4.4987674E2,3.334955E1,3.9355793E1,3.2170555E1,2.0226406E1,1.0795375E0,2.4236772E0,6.551585E2,3.354709E2,3.3935272E1,2.1507642E3,6.44811E2,4.980464E1,2.2944355E0,1.2643513E3,3.7509346E1,1.3306927E1,2.0042622E1,4.1190915E0,2.8051462E1,1.656898E0,1.8569508E1,6.529015E2,2.2570236E0,3.075286E2,2.7942278E1,2.8411026E0,3.109417E1,1.3853788E3,7.653853E2,8.146099E1,5.6335E2,1.2125372E3,5.1814068E1,2.1405163E0,3.5368828E1,1.0624142E1,2.6827848E0,1.1402653E0,2.6911196E1,1.2351104E0,6.516664E2],"tree_param":{"num_deleted":"0","num_feature":"74","num_nodes":"61","size_leaf_vector":"0"}},{"base_weights":[-1.33388005E-2,-1.1881481E-1,9.700937E-1,-3.4500375E-2,-8.3799565E-1,9.7686297E-1,-7.494094E-1,-6.938993E-1,3.88296E-2,-9.756082E-1,4.8106912E-1,9.8083895E-1,-4.7689602E-1,-8.449371E-1,6.674709E-1,-3.273929E-1,1.7321856E-1,-1.0349658E0,-9.591522E-2,-1.006506E0,9.13454E-1,4.7674486E-1,9.9502003E-1,6.3626595E-2,-1.0014051E0,-8.9009655E-1,8.9916736E-1,-8.0307406E-1,2.322526E-1,-7.895964E-1,2.4067135E-1,-1.0859437E0,5.3874487E-1,-8.223044E-1,1.0295874E0,-1.2475492E0,8.249576E-1,1.0783929E-1,9.9878955E-1,-1.0499799E0,6.689665E-1,-1.0251342E0,6.1640596E-1,9.9436456E-1,-6.786846E-1,-1.0587486E0,-1.9572933E-1,4.6397272E-1,-1.3249714E0,-1.2833638E0,3.8223222E-1,3.171552E-1,-4.6651265E-1,-9.109778E-1,8.4703124E-1,1.5587968E-1,1.07815E0,-1.5386314E-2,9.361921E-1,6.754625E-2,1.0010178E0],"categories":[],"categories_nodes":[],"categories_segments":[],"categories_sizes":[],"default_left":[1,1,1,1,1,1,0,1,1,1,1,1,0,1,1,1,1,0,1,0,1,1,1,1,1,0,1,1,1,1,1,0,1,0,1,0,1,0,1,0,0,0,0,0,0,0,0,0,0,0,0,0,0,0,0,0,0,0,0,0,0],"id":14,"left_children":[1,3,5,7,9,11,-1,13,15,17,19,21,-1,23,25,27,29,-1,31,-1,33,35,37,39,41,-1,43,45,47,49,51,-1,53,-1,55,-1,57,-1,59,-1,-1,-1,-1,-1,-1,-1,-1,-1,-1,-1,-1,-1,-1,-1,-1,-1,-1,-1,-1,-1,-1],"loss_changes":[5.371237E2,2.8354013E2,6.5703125E0,2.0247401E2,8.953772E1,3.3581238E0,0E0,8.673018E1,1.8553986E2,2.311911E1,3.1165783E1,3.0928345E0,0E0,5.3750946E1,1.6104786E1,2.696104E2,1.7928598E2,0E0,1.8937958E1,0E0,8.296724E0,1.038001E1,1.5123596E0,3.8737316E1,1.3001953E1,0E0,6.294737E0,8.4778046E1,1.6868251E2,1.0509275E2,1.3958142E2,0E0,9.025221E0,0E0,1.3205757E0,0E0,1.2818451E0,0E0,9.3310547E-1,0E0,0E0,0E0,0E0,0E0,0E0,0E0,0E0,0E0,0E0,0E0,0E0,0E0,0E0,0E0,0E0,0E0,0E0,0E0,0E0,0E0,0E0],"parents":[2147483647,0,0,1,1,2,2,3,3,4,4,5,5,7,7,8,8,9,9,10,10,11,11,13,13,14,14,15,15,16,16,18,18,20,20,21,21,22,22,23,23,24,24,26,26,27,27,28,28,29,29,30,30,32,32,34,34,36,36,38,38],"right_children":[2,4,6,8,10,12,-1,14,16,18,20,22,-1,24,26,28,30,-1,32,-1,34,36,38,40,42,-1,44,46,48,50,52,-1,54,-1,56,-1,58,-1,60,-1,-1,-1,-1,-1,-1,-1,-1,-1,-1,-1,-1,-1,-1,-1,-1,-1,-1,-1,-1,-1,-1],"split_conditions":[5.3450003E0,2.2650002E1,1.725E1,-7.8499997E-1,1.1225E1,6.4435E1,-2.2482282E-1,2.3649998E0,-1.255E1,3.4650002E0,1.45E0,1.49E0,-1.430688E-1,8.75E0,1.955E0,1.915E0,-5.415E1,-3.1048974E-1,3.85E-1,-3.019518E-1,-5.3800003E1,3.9700003E0,-1.3E1,7.55E-1,3.31E0,-2.67029E-1,6.145E2,2.245E0,-3.935E1,3.3E0,-1.315E1,-3.2578313E-1,1.9E1,-2.4669133E-1,6.75E-1,-3.7426478E-1,3.3500001E0,3.2351788E-2,7.1500003E-1,-3.1499398E-1,2.0068996E-1,-3.0754027E-1,1.849218E-1,2.983094E-1,-2.0360538E-1,-3.176246E-1,-5.87188E-2,1.3919182E-1,-3.9749146E-1,-3.8500917E-1,1.1466967E-1,9.514657E-2,-1.399538E-1,-2.7329335E-1,2.5410938E-1,4.6763904E-2,3.2344502E-1,-4.6158945E-3,2.8085765E-1,2.0263875E-2,3.0030537E-1],"split_indices":[57,34,4,62,47,1,0,17,14,62,71,2,0,54,27,62,50,0,72,0,19,38,43,73,21,0,10,67,39,28,29,0,3,0,73,0,14,0,37,0,0,0,0,0,0,0,0,0,0,0,0,0,0,0,0,0,0,0,0,0,0],"split_type":[0,0,0,0,0,0,0,0,0,0,0,0,0,0,0,0,0,0,0,0,0,0,0,0,0,0,0,0,0,0,0,0,0,0,0,0,0,0,0,0,0,0,0,0,0,0,0,0,0,0,0,0,0,0,0,0,0,0,0,0,0],"sum_hessian":[5.176056E3,4.6754766E3,5.0057935E2,4.1857954E3,4.8968118E2,4.9904663E2,1.5327221E0,4.1805878E2,3.7677368E3,4.4365668E2,4.6024487E1,4.980099E2,1.0367341E0,3.7665045E2,4.1408318E1,1.0110621E3,2.7566748E3,4.1544772E2,2.8208958E1,1.0065924E1,3.595856E1,1.4573791E1,4.834361E2,5.5422382E1,3.2122806E2,4.9941E0,3.6414215E1,5.462941E2,4.647679E2,1.7978165E2,2.576893E3,1.0741638E1,1.746732E1,1.8736625E0,3.40849E1,2.0146825E0,1.2559108E1,2.1706524E0,4.8126547E2,1.9258738E1,3.6163643E1,3.1694565E2,4.282415E0,3.469099E1,1.7232264E0,3.8392825E2,1.623659E2,4.051781E2,5.95898E1,1.2641826E2,5.3363396E1,2.325893E3,2.5100006E2,2.7202618E0,1.4747059E1,2.016431E0,3.206847E1,1.5688187E0,1.099029E1,1.2235651E0,4.800419E2],"tree_param":{"num_deleted":"0","num_feature":"74","num_nodes":"61","size_leaf_vector":"0"}},{"base_weights":[-1.4977181E-2,-1.2607051E-1,7.463107E-1,-7.713818E-1,-4.1863482E-2,-1.1383303E0,8.105272E-1,-9.217138E-1,1.4964491E-1,-9.42431E-2,7.901036E-1,8.603535E-1,-7.3991966E-1,-1.0241045E0,-1.1277389E-1,-9.471916E-1,8.053031E-1,-2.2608678E-1,2.5781512E-1,-1.0941347E0,8.37307E-1,9.2121124E-1,-1.135972E-1,-1.1740115E0,8.0852115E-1,-1.0330502E0,2.1814753E-1,4.141672E-1,-1.0809662E0,-9.981104E-1,1.4895701E-1,-7.9517347E-1,9.709472E-1,1.5976626E-1,-4.0525937E-1,4.2298916E-1,-1.0439029E0,-1.220164E0,8.717993E-1,1.69809E-2,9.4666266E-1,5.417546E-1,-1.4883945E0,5.1915663E-1,-1.4105703E-1,-9.8226225E-1,7.5425375E-1,6.1208807E-2,1.0367785E0,4.1186497E-1,-5.8947194E-1,-7.4398685E-1,-1.563855E-1,5.331916E-1,-1.4287876E0,-1.194735E0,2.2110584E-1,-9.6551555E-1,9.0027905E-1,-1.6458426E0,9.21407E-1,2.4822132E-1,9.7162414E-1,8.295325E-1,-1.1565512E0,-1.8202024E0,5.702895E-1],"categories":[],"categories_nodes":[],"categories_segments":[],"categories_sizes":[],"default_left":[1,1,1,1,1,0,1,1,1,1,1,1,1,1,1,1,1,1,1,0,1,1,1,0,0,0,1,1,0,0,0,0,1,1,1,1,1,0,1,1,1,1,1,0,0,0,0,0,0,0,0,0,0,0,0,0,0,0,0,0,0,0,0,0,0,0,0],"id":15,"left_children":[1,3,5,7,9,-1,11,13,15,17,19,21,23,25,27,29,31,33,35,-1,37,39,41,-1,-1,-1,43,45,-1,-1,-1,-1,47,49,51,53,55,-1,57,59,61,63,65,-1,-1,-1,-1,-1,-1,-1,-1,-1,-1,-1,-1,-1,-1,-1,-1,-1,-1,-1,-1,-1,-1,-1,-1],"loss_changes":[3.9493964E2,2.2140039E2,7.289285E1,6.5256805E1,1.5720226E2,0E0,4.5108154E1,3.3384735E1,4.8840565E1,1.575495E2,1.9920319E1,3.319049E1,1.3358387E1,4.213623E0,2.42045E1,1.5703487E0,1.2008011E1,1.7076218E2,1.9930852E2,0E0,1.5896774E1,1.2077362E1,3.1185724E1,0E0,0E0,0E0,4.3994278E-1,1.54046E1,0E0,0E0,0E0,0E0,2.2636871E0,1.4826433E2,1.4204767E2,1.6840237E2,2.0190872E1,0E0,1.1656296E1,2.4682734E1,8.669006E0,1.2477339E1,8.65546E0,0E0,0E0,0E0,0E0,0E0,0E0,0E0,0E0,0E0,0E0,0E0,0E0,0E0,0E0,0E0,0E0,0E0,0E0,0E0,0E0,0E0,0E0,0E0,0E0],"parents":[2147483647,0,0,1,1,2,2,3,3,4,4,6,6,7,7,8,8,9,9,10,10,11,11,12,12,13,13,14,14,15,15,16,16,17,17,18,18,20,20,21,21,22,22,26,26,27,27,32,32,33,33,34,34,35,35,36,36,38,38,39,39,40,40,41,41,42,42],"right_children":[2,4,6,8,10,-1,12,14,16,18,20,22,24,26,28,30,32,34,36,-1,38,40,42,-1,-1,-1,44,46,-1,-1,-1,-1,48,50,52,54,56,-1,58,60,62,64,66,-1,-1,-1,-1,-1,-1,-1,-1,-1,-1,-1,-1,-1,-1,-1,-1,-1,-1,-1,-1,-1,-1,-1,-1],"split_conditions":[2.6750002E0,-6.35E-1,5.05E-1,1.585E0,9.065001E0,-3.4149912E-1,6.225E1,1.755E0,1.025E0,-5.525E1,-2.9000002E-1,-1.94E1,3.04E0,3.78E0,1.5935E2,2.52E0,3.75E-1,5.5245003E1,2.725E2,-3.2824042E-1,-7.23E0,-9.5000005E-1,7.556E2,-3.5220346E-1,2.4255635E-1,-3.0991507E-1,-4.5E-1,6.45E-1,-3.242899E-1,-2.9943314E-1,4.4687107E-2,-2.3855205E-1,5.9000003E-1,-3.775E1,1.14999995E-1,1.05E1,1.635E0,-3.660492E-1,3.5E0,3.935E0,-5.5E-2,-3.145E1,5.3E0,1.55747E-1,-4.231711E-2,-2.946787E-1,2.2627613E-1,1.8362643E-2,3.1103355E-1,1.235595E-1,-1.7684159E-1,-2.2319606E-1,-4.691565E-2,1.599575E-1,-4.2863628E-1,-3.5842052E-1,6.633176E-2,-2.8965467E-1,2.7008373E-1,-4.9375278E-1,2.764221E-1,7.44664E-2,2.9148725E-1,2.4885976E-1,-3.4696537E-1,-5.4606074E-1,1.7108685E-1],"split_indices":[7,62,57,31,37,0,54,22,26,9,52,29,31,52,70,2,72,0,35,0,23,6,55,0,0,0,2,73,0,0,0,0,6,59,36,43,26,0,48,67,22,39,2,0,0,0,0,0,0,0,0,0,0,0,0,0,0,0,0,0,0,0,0,0,0,0,0],"split_type":[0,0,0,0,0,0,0,0,0,0,0,0,0,0,0,0,0,0,0,0,0,0,0,0,0,0,0,0,0,0,0,0,0,0,0,0,0,0,0,0,0,0,0,0,0,0,0,0,0,0,0,0,0,0,0,0,0,0,0,0,0,0,0,0,0,0,0],"sum_hessian":[4.667639E3,4.073967E3,5.9367206E2,4.69309E2,3.6046582E3,1.9010836E1,5.746612E2,4.0345535E2,6.585364E1,3.3919895E3,2.1266872E2,5.571997E2,1.7461485E1,3.5788986E2,4.55655E1,2.4471369E1,4.138227E1,2.4680698E3,9.2391956E2,4.6554575E0,2.0801326E2,5.2448145E2,3.2718304E1,1.3827014E1,3.6344717E0,3.5549826E2,2.3915923E0,2.9877058E1,1.5688438E1,2.3470543E1,1.0008252E0,3.524788E0,3.7857483E1,7.8267224E2,1.6853976E3,8.20484E2,1.03435555E2,2.8629513E0,2.0515031E2,1.4404101E1,5.1007733E2,2.2566853E1,1.0151449E1,1.058928E0,1.3326644E0,5.4814405E0,2.4395618E1,2.6848366E0,3.5172646E1,5.85962E2,1.967103E2,7.1299414E2,9.7240344E2,7.7507025E2,4.5413723E1,9.2466E1,1.0969547E1,2.6292233E0,2.0252109E2,4.7856774E0,9.618423E0,1.7978174E1,4.9209915E2,1.9734411E1,2.8324428E0,8.842158E0,1.3092911E0],"tree_param":{"num_deleted":"0","num_feature":"74","num_nodes":"67","size_leaf_vector":"0"}},{"base_weights":[-1.2535764E-2,-9.221445E-2,9.123386E-1,1.6065688E-1,-2.760439E-1,-1.0308945E0,9.323181E-1,-9.9728084E-1,2.4611354E-1,-8.370642E-1,-6.087694E-2,9.689633E-1,1.2875529E-1,-1.2341822E0,9.4784796E-1,3.4303504E-1,-5.653854E-1,6.8007505E-1,-9.5583445E-1,1.485676E-1,-8.283086E-1,4.522847E-1,9.9832666E-1,-1.6360352E0,9.125386E-1,1.7952661E-1,-1.306182E0,1.9239795E-1,7.291466E-1,-9.67914E-1,5.570674E-1,1.2809902E0,-1.1038218E0,-1.0993798E0,-1.9571258E-1,-8.447116E-1,2.5737783E-1,-1.027214E0,4.111495E-1,-2.0599663E0,8.880608E-1,1.0049993E0,-4.111014E-1,-1.9806426E0,-7.488334E-1,7.948494E-1,-1.1642833E0,-1.1490465E0,-1.7439057E0,-4.8441485E-1,3.2109874E-1,-9.966264E-1,7.655552E-1,9.332043E-1,-1.1012149E0,-1.1432467E0,8.116393E-1,3.3560607E-1,1.3778062E0,-1.1850237E0,-1.24899164E-1,-1.4376507E0,2.79584E-1,4.9196616E-1,-1.0818409E0,5.406626E-1,-1.4434372E-1,-1.1566254E0,8.105573E-1,8.7037337E-1,-1.1010883E0,8.451583E-2,9.4046885E-1,-1.0894518E-1,1.009901E0],"categories":[],"categories_nodes":[],"categories_segments":[],"categories_sizes":[],"default_left":[1,1,1,1,1,0,1,1,1,1,1,1,1,1,0,1,1,1,1,1,1,1,1,1,0,1,1,1,1,1,1,1,0,1,1,1,1,1,1,0,1,1,0,0,0,0,0,0,0,0,0,0,0,0,0,0,0,0,0,0,0,0,0,0,0,0,0,0,0,0,0,0,0,0,0],"id":16,"left_children":[1,3,5,7,9,-1,11,13,15,17,19,21,23,25,-1,27,29,31,33,35,37,39,41,43,-1,45,47,49,51,53,55,57,-1,59,61,63,65,67,69,-1,71,73,-1,-1,-1,-1,-1,-1,-1,-1,-1,-1,-1,-1,-1,-1,-1,-1,-1,-1,-1,-1,-1,-1,-1,-1,-1,-1,-1,-1,-1,-1,-1,-1,-1],"loss_changes":[3.140746E2,1.8244087E2,1.4085815E1,1.6375018E2,2.742593E2,0E0,9.743835E0,5.359118E1,1.2128442E2,1.141449E2,2.6429932E2,4.4088135E0,2.3306084E1,1.0600906E1,0E0,7.988811E1,7.492618E1,5.1060417E1,6.3565674E1,1.3985791E2,8.733453E1,2.269123E1,3.2562256E0,1.0907364E-1,0E0,5.7334695E0,4.670044E0,8.649049E1,2.5003632E1,3.1830109E1,2.0013296E1,2.7508163E0,0E0,4.086963E1,5.59305E1,4.103916E1,1.3268274E2,7.325403E1,3.530945E1,0E0,6.3379955E-1,1.7545471E0,0E0,0E0,0E0,0E0,0E0,0E0,0E0,0E0,0E0,0E0,0E0,0E0,0E0,0E0,0E0,0E0,0E0,0E0,0E0,0E0,0E0,0E0,0E0,0E0,0E0,0E0,0E0,0E0,0E0,0E0,0E0,0E0,0E0],"parents":[2147483647,0,0,1,1,2,2,3,3,4,4,6,6,7,7,8,8,9,9,10,10,11,11,12,12,13,13,15,15,16,16,17,17,18,18,19,19,20,20,21,21,22,22,23,23,25,25,26,26,27,27,28,28,29,29,30,30,31,31,33,33,34,34,35,35,36,36,37,37,38,38,40,40,41,41],"right_children":[2,4,6,8,10,-1,12,14,16,18,20,22,24,26,-1,28,30,32,34,36,38,40,42,44,-1,46,48,50,52,54,56,58,-1,60,62,64,66,68,70,-1,72,74,-1,-1,-1,-1,-1,-1,-1,-1,-1,-1,-1,-1,-1,-1,-1,-1,-1,-1,-1,-1,-1,-1,-1,-1,-1,-1,-1,-1,-1,-1,-1,-1,-1],"split_conditions":[3.1350002E0,-7.45E1,5.3E-1,3.05E-1,-1.85E-1,-3.0926836E-1,1.28545E3,9.3E1,1.50135E3,-2.3850002E0,3.2175E2,2.065E0,3.935E0,-8.25E0,2.843544E-1,5.965E0,1.1805E1,-2.475E0,2.5149999E0,1.95E-1,9.05E0,2.795E0,4.054E1,3.25E1,2.737616E-1,-9.9E-1,2.025E0,-2.9500002E-1,-2.9500002E-1,-2.1875E2,4.0499997E-1,9.0999997E-1,-3.3114654E-1,4.635E0,2.45E-1,-5.425E1,2.5E0,3.6350002E0,-8.45E-1,-6.179899E-1,3.4699998E0,9.6000004E-1,-1.2333042E-1,-5.941928E-1,-2.2465004E-1,2.3845483E-1,-3.49285E-1,-3.44714E-1,-5.231717E-1,-1.4532445E-1,9.632963E-2,-2.9898793E-1,2.2966658E-1,2.799613E-1,-3.3036447E-1,-3.42974E-1,2.434918E-1,1.0068183E-1,4.1334188E-1,-3.555071E-1,-3.7469752E-2,-4.3129522E-1,8.38752E-2,1.4758985E-1,-3.2455227E-1,1.6219878E-1,-4.3303117E-2,-3.4698763E-1,2.431672E-1,2.6111203E-1,-3.303265E-1,2.535475E-2,2.8214067E-1,-3.2683555E-2,3.0297032E-1],"split_indices":[22,44,2,73,56,0,55,3,10,6,50,47,67,54,0,37,47,61,62,72,40,7,27,54,0,11,62,57,52,9,2,73,0,18,18,59,63,52,61,0,57,37,0,0,0,0,0,0,0,0,0,0,0,0,0,0,0,0,0,0,0,0,0,0,0,0,0,0,0,0,0,0,0,0,0],"split_type":[0,0,0,0,0,0,0,0,0,0,0,0,0,0,0,0,0,0,0,0,0,0,0,0,0,0,0,0,0,0,0,0,0,0,0,0,0,0,0,0,0,0,0,0,0,0,0,0,0,0,0,0,0,0,0,0,0,0,0,0,0,0,0,0,0,0,0,0,0,0,0,0,0,0,0],"sum_hessian":[4.259804E3,3.9227556E3,3.3704834E2,1.6513392E3,2.2714165E3,2.9151947E0,3.3413315E2,1.1276077E2,1.5385785E3,6.2885834E2,1.6425581E3,3.1936322E2,1.4769903E1,1.00844246E2,1.1916532E1,1.3749397E3,1.6363884E2,4.5313236E1,5.835451E2,1.2910233E3,3.515348E2,1.8055769E1,3.0130746E2,4.207903E0,1.0562E1,4.8146987E0,9.602954E1,9.901443E2,3.8479535E2,1.2054667E2,4.3092175E1,3.410627E1,1.1206965E1,4.9047498E2,9.307014E1,1.2679609E2,1.1642272E3,3.0307E2,4.8464775E1,2.1180544E0,1.5937715E1,3.001733E2,1.1341524E0,2.1430416E0,2.0648613E0,3.582708E0,1.2319906E0,7.333027E1,2.2699276E1,1.5775853E2,8.323858E2,7.405388E0,3.7738998E2,7.505372E0,1.1304129E2,5.1570177E0,3.7935158E1,3.5832396E0,3.052303E1,4.5065256E2,3.9822414E1,2.5199562E1,6.7870575E1,1.8942743E1,1.0785335E2,6.8255756E2,4.8166965E2,2.8347876E2,1.9591238E1,3.750118E1,1.0963599E1,1.1357967E0,1.4801918E1,1.2221162E0,2.989512E2],"tree_param":{"num_deleted":"0","num_feature":"74","num_nodes":"75","size_leaf_vector":"0"}},{"base_weights":[-1.5574319E-2,-7.789567E-2,9.4476753E-1,-4.0049037E-1,4.0925737E-2,-1.9057377E-1,9.5816565E-1,-6.745201E-1,2.327809E-1,6.461112E-1,-6.256872E-2,-8.6742437E-1,5.6308734E-1,9.6679664E-1,-4.2518735E-1,-9.103354E-1,2.7352223E-1,8.276812E-1,-2.6107275E-1,2.4326062E-1,1.0750653E0,-2.0029347E-1,2.749488E-1,9.7343695E-1,-3.916448E-2,-9.6634406E-1,4.446264E-1,5.3154856E-1,-1.3857014E0,1.0638742E0,-1.2025315E0,-8.0251104E-1,3.646577E-1,-1.067328E0,6.419411E-1,-1.0784515E0,1.1268154E0,-4.0215406E-1,1.887534E-1,-6.7079186E-1,3.799917E-1,1.4056272E-2,9.7793E-1,-1.0147344E0,7.0682234E-1,-9.09247E-1,9.1065615E-1,-1.011646E0,7.760149E-1,-1.9955838E-1,1.2699306E0,-1.0882777E0,5.9687465E-1,-1.1845542E0,7.7712244E-1,-1.1955744E0,7.38604E-1,7.7856463E-1,-1.040595E0,1.1654582E0,-8.5595584E-1,-8.464343E-1,-3.4693282E-2,-1.6248529E0,3.0246806E-1,-1.1839441E0,3.9266217E-1,-3.8310567E-1,4.7777718E-1,5.488305E-2,9.8278743E-1],"categories":[],"categories_nodes":[],"categories_segments":[],"categories_sizes":[],"default_left":[1,1,1,1,1,1,1,1,1,1,1,0,0,1,0,1,1,1,1,1,1,1,1,1,0,1,1,1,0,1,0,1,1,1,1,0,1,1,1,1,1,0,1,0,0,0,0,0,0,0,0,0,0,0,0,0,0,0,0,0,0,0,0,0,0,0,0,0,0,0,0],"id":17,"left_children":[1,3,5,7,9,11,13,15,17,19,21,-1,-1,23,-1,25,27,29,31,33,35,37,39,41,-1,43,45,47,-1,49,-1,51,53,55,57,-1,59,61,63,65,67,-1,69,-1,-1,-1,-1,-1,-1,-1,-1,-1,-1,-1,-1,-1,-1,-1,-1,-1,-1,-1,-1,-1,-1,-1,-1,-1,-1,-1,-1],"loss_changes":[2.271826E2,1.3664111E2,3.7013397E0,1.6667203E2,1.6324913E2,2.290213E0,3.1427917E0,1.500347E2,8.557862E1,6.551335E1,1.03536476E2,0E0,0E0,1.5589905E0,0E0,4.1164703E1,5.820209E1,6.459214E1,5.433697E1,1.03922386E2,2.1726791E1,1.2428334E2,6.438667E1,9.614258E-1,0E0,4.247699E1,1.4703693E1,4.488095E1,0E0,3.1182648E1,0E0,3.4973755E1,4.8645275E1,1.1643524E1,3.5778706E1,0E0,1.4806076E1,1.700211E2,1.1205758E2,3.5879288E1,4.3586517E1,0E0,9.555664E-1,0E0,0E0,0E0,0E0,0E0,0E0,0E0,0E0,0E0,0E0,0E0,0E0,0E0,0E0,0E0,0E0,0E0,0E0,0E0,0E0,0E0,0E0,0E0,0E0,0E0,0E0,0E0,0E0],"parents":[2147483647,0,0,1,1,2,2,3,3,4,4,5,5,6,6,7,7,8,8,9,9,10,10,13,13,15,15,16,16,17,17,18,18,19,19,20,20,21,21,22,22,23,23,25,